<?xml version="1.0" encoding="UTF-8" standalone="yes"?>
<PMML xmlns="http://www.dmg.org/PMML-4_4" xmlns:data="http://jpmml.org/jpmml-model/InlineTable" version="4.4">
	<Header>
		<Application name="SkLearn2PMML package" version="0.130.0"/>
		<Timestamp>2026-04-07T04:10:00Z</Timestamp>
	
  <!-- Clari5 RTS.Neo Fraud Intelligence Platform
       Generated by: Clari5 Air-Gapped ML Retraining Pipeline
       Deploy to: Clari5 Scoring JAR via JPMML-Evaluator >= 1.5.x
       probField property: probability(1)
       Target field: y (1=Fraud, 0=Legitimate) --></Header>
	<MiningBuildTask>
		<Extension name="repr">PMMLPipeline(steps=[('gbt', GradientBoostingClassifier(learning_rate=0.05, max_depth=4, min_samples_leaf=20,
                           n_estimators=200, random_state=42, subsample=0.8))])</Extension>
	</MiningBuildTask>
	<DataDictionary>
		<DataField name="y" optype="categorical" dataType="integer">
			<Value value="0"/>
			<Value value="1"/>
		</DataField>
		<DataField name="balancePostEvt" optype="continuous" dataType="float"/>
		<DataField name="TO_min_Period1_interval" optype="continuous" dataType="float"/>
		<DataField name="TS_prev_time" optype="continuous" dataType="float"/>
		<DataField name="TO_cur_Period1_interval" optype="continuous" dataType="float"/>
		<DataField name="pstd_day_of_week" optype="continuous" dataType="float"/>
		<DataField name="pstd_hour" optype="continuous" dataType="float"/>
		<DataField name="TO_first_time" optype="continuous" dataType="float"/>
		<DataField name="TO_prev_time" optype="continuous" dataType="float"/>
		<DataField name="TS_cur_cntPeriod1" optype="continuous" dataType="float"/>
		<DataField name="TO_cur_sumPeriod1" optype="continuous" dataType="float"/>
		<DataField name="TO_cur_sumPeriod2" optype="continuous" dataType="float"/>
		<DataField name="TO_cur_cntPeriod1" optype="continuous" dataType="float"/>
		<DataField name="TO_cur_cntPeriod2" optype="continuous" dataType="float"/>
		<DataField name="txn_amt" optype="continuous" dataType="float"/>
		<DataField name="TO_cur_cntPeriod3" optype="continuous" dataType="float"/>
		<DataField name="TO_cur_sumPeriod3" optype="continuous" dataType="float"/>
		<DataField name="TO_cur_cntPeriod4" optype="continuous" dataType="float"/>
		<DataField name="TO_cur_sumPeriod4" optype="continuous" dataType="float"/>
		<DataField name="txn_amt_vs_acct_avg" optype="continuous" dataType="float"/>
	</DataDictionary>
	<MiningModel functionName="classification" algorithmName="sklearn.ensemble._gb.GradientBoostingClassifier">
		<MiningSchema>
			<MiningField name="y" usageType="target"/>
			<MiningField name="balancePostEvt"/>
			<MiningField name="TO_min_Period1_interval"/>
			<MiningField name="TS_prev_time"/>
			<MiningField name="TO_cur_Period1_interval"/>
			<MiningField name="pstd_day_of_week"/>
			<MiningField name="pstd_hour"/>
			<MiningField name="TO_first_time"/>
			<MiningField name="TO_prev_time"/>
			<MiningField name="TS_cur_cntPeriod1"/>
			<MiningField name="TO_cur_sumPeriod1"/>
			<MiningField name="TO_cur_sumPeriod2"/>
			<MiningField name="TO_cur_cntPeriod1"/>
			<MiningField name="TO_cur_cntPeriod2"/>
			<MiningField name="txn_amt"/>
			<MiningField name="TO_cur_cntPeriod3"/>
			<MiningField name="TO_cur_sumPeriod3"/>
			<MiningField name="TO_cur_cntPeriod4"/>
			<MiningField name="TO_cur_sumPeriod4"/>
			<MiningField name="txn_amt_vs_acct_avg"/>
		</MiningSchema>
		<Segmentation multipleModelMethod="modelChain" missingPredictionTreatment="returnMissing">
			<Segment id="1">
				<True/>
				<MiningModel functionName="regression">
					<MiningSchema>
						<MiningField name="txn_amt_vs_acct_avg"/>
						<MiningField name="txn_amt"/>
						<MiningField name="TS_prev_time"/>
						<MiningField name="TO_cur_sumPeriod2"/>
						<MiningField name="pstd_hour"/>
						<MiningField name="TO_cur_cntPeriod2"/>
						<MiningField name="TO_cur_cntPeriod4"/>
						<MiningField name="TO_cur_sumPeriod3"/>
						<MiningField name="TS_cur_cntPeriod1"/>
						<MiningField name="balancePostEvt"/>
						<MiningField name="TO_cur_sumPeriod4"/>
						<MiningField name="TO_cur_sumPeriod1"/>
						<MiningField name="pstd_day_of_week"/>
						<MiningField name="TO_min_Period1_interval"/>
						<MiningField name="TO_prev_time"/>
						<MiningField name="TO_first_time"/>
						<MiningField name="TO_cur_Period1_interval"/>
						<MiningField name="TO_cur_cntPeriod1"/>
						<MiningField name="TO_cur_cntPeriod3"/>
					</MiningSchema>
					<Output>
						<OutputField name="decisionFunction(1)" optype="continuous" dataType="double" isFinalResult="false"/>
					</Output>
					<Targets>
						<Target rescaleConstant="-5.710395778601301" rescaleFactor="0.05"/>
					</Targets>
					<LocalTransformations>
						<DerivedField name="double(txn_amt_vs_acct_avg)" optype="continuous" dataType="double">
							<FieldRef field="txn_amt_vs_acct_avg"/>
						</DerivedField>
						<DerivedField name="double(txn_amt)" optype="continuous" dataType="double">
							<FieldRef field="txn_amt"/>
						</DerivedField>
						<DerivedField name="double(TS_prev_time)" optype="continuous" dataType="double">
							<FieldRef field="TS_prev_time"/>
						</DerivedField>
						<DerivedField name="double(TO_cur_sumPeriod2)" optype="continuous" dataType="double">
							<FieldRef field="TO_cur_sumPeriod2"/>
						</DerivedField>
						<DerivedField name="double(pstd_hour)" optype="continuous" dataType="double">
							<FieldRef field="pstd_hour"/>
						</DerivedField>
						<DerivedField name="double(TO_cur_cntPeriod2)" optype="continuous" dataType="double">
							<FieldRef field="TO_cur_cntPeriod2"/>
						</DerivedField>
						<DerivedField name="double(TO_cur_cntPeriod4)" optype="continuous" dataType="double">
							<FieldRef field="TO_cur_cntPeriod4"/>
						</DerivedField>
						<DerivedField name="double(TO_cur_sumPeriod3)" optype="continuous" dataType="double">
							<FieldRef field="TO_cur_sumPeriod3"/>
						</DerivedField>
						<DerivedField name="double(TS_cur_cntPeriod1)" optype="continuous" dataType="double">
							<FieldRef field="TS_cur_cntPeriod1"/>
						</DerivedField>
						<DerivedField name="double(balancePostEvt)" optype="continuous" dataType="double">
							<FieldRef field="balancePostEvt"/>
						</DerivedField>
						<DerivedField name="double(TO_cur_sumPeriod4)" optype="continuous" dataType="double">
							<FieldRef field="TO_cur_sumPeriod4"/>
						</DerivedField>
						<DerivedField name="double(TO_cur_sumPeriod1)" optype="continuous" dataType="double">
							<FieldRef field="TO_cur_sumPeriod1"/>
						</DerivedField>
						<DerivedField name="double(pstd_day_of_week)" optype="continuous" dataType="double">
							<FieldRef field="pstd_day_of_week"/>
						</DerivedField>
						<DerivedField name="double(TO_min_Period1_interval)" optype="continuous" dataType="double">
							<FieldRef field="TO_min_Period1_interval"/>
						</DerivedField>
						<DerivedField name="double(TO_prev_time)" optype="continuous" dataType="double">
							<FieldRef field="TO_prev_time"/>
						</DerivedField>
						<DerivedField name="double(TO_first_time)" optype="continuous" dataType="double">
							<FieldRef field="TO_first_time"/>
						</DerivedField>
						<DerivedField name="double(TO_cur_Period1_interval)" optype="continuous" dataType="double">
							<FieldRef field="TO_cur_Period1_interval"/>
						</DerivedField>
						<DerivedField name="double(TO_cur_cntPeriod1)" optype="continuous" dataType="double">
							<FieldRef field="TO_cur_cntPeriod1"/>
						</DerivedField>
						<DerivedField name="double(TO_cur_cntPeriod3)" optype="continuous" dataType="double">
							<FieldRef field="TO_cur_cntPeriod3"/>
						</DerivedField>
					</LocalTransformations>
					<Segmentation multipleModelMethod="sum" missingPredictionTreatment="returnMissing">
						<Segment id="1">
							<True/>
							<TreeModel functionName="regression" missingValueStrategy="nullPrediction" noTrueChildStrategy="returnLastPrediction">
								<MiningSchema>
									<MiningField name="double(txn_amt_vs_acct_avg)"/>
									<MiningField name="double(txn_amt)"/>
									<MiningField name="double(TS_prev_time)"/>
								</MiningSchema>
								<Node score="-0.6338950465730699">
									<True/>
									<Node score="211.79240281789873">
										<SimplePredicate field="double(txn_amt_vs_acct_avg)" operator="lessOrEqual" value="0.0649176836013794"/>
										<Node score="302.990566037735">
											<SimplePredicate field="double(txn_amt_vs_acct_avg)" operator="lessOrEqual" value="0.03476502187550068"/>
										</Node>
									</Node>
									<Node score="90.19485185811703">
										<SimplePredicate field="double(txn_amt_vs_acct_avg)" operator="lessOrEqual" value="0.0871628113090992"/>
									</Node>
									<Node score="-1.003311361719409">
										<SimplePredicate field="double(txn_amt_vs_acct_avg)" operator="lessOrEqual" value="0.12130763754248619"/>
										<Node score="90.19485185811703">
											<SimplePredicate field="double(txn_amt)" operator="lessOrEqual" value="4635.741455078125"/>
										</Node>
									</Node>
									<Node score="20.205563805684424">
										<SimplePredicate field="double(TS_prev_time)" operator="lessOrEqual" value="169.5"/>
									</Node>
								</Node>
							</TreeModel>
						</Segment>
						<Segment id="2">
							<True/>
							<TreeModel functionName="regression" missingValueStrategy="nullPrediction" noTrueChildStrategy="returnLastPrediction">
								<MiningSchema>
									<MiningField name="double(txn_amt_vs_acct_avg)"/>
									<MiningField name="double(TS_prev_time)"/>
									<MiningField name="double(TO_cur_sumPeriod2)"/>
								</MiningSchema>
								<Node score="-0.8078922070966846">
									<True/>
									<Node score="-0.8655544812449558">
										<SimplePredicate field="double(TS_prev_time)" operator="lessOrEqual" value="171.0"/>
										<Node score="13.601733455603984">
											<SimplePredicate field="double(TO_cur_sumPeriod2)" operator="lessOrEqual" value="428975.65625"/>
										</Node>
									</Node>
									<Node score="-4.9470604037511885">
										<SimplePredicate field="double(txn_amt_vs_acct_avg)" operator="lessOrEqual" value="0.06882324442267418"/>
										<Node score="1.0000795493853138">
											<SimplePredicate field="double(txn_amt_vs_acct_avg)" operator="lessOrEqual" value="0.034456685185432434"/>
										</Node>
									</Node>
									<Node score="0.5549968575678698">
										<SimplePredicate field="double(TS_prev_time)" operator="lessOrEqual" value="29529.0"/>
										<Node score="4.109294319064892">
											<SimplePredicate field="double(txn_amt_vs_acct_avg)" operator="lessOrEqual" value="0.13918282091617584"/>
										</Node>
									</Node>
									<Node score="-0.7445846568206687">
										<SimplePredicate field="double(txn_amt_vs_acct_avg)" operator="lessOrEqual" value="0.11996791884303093"/>
									</Node>
								</Node>
							</TreeModel>
						</Segment>
						<Segment id="3">
							<True/>
							<TreeModel functionName="regression" missingValueStrategy="nullPrediction" noTrueChildStrategy="returnLastPrediction">
								<MiningSchema>
									<MiningField name="double(txn_amt_vs_acct_avg)"/>
									<MiningField name="double(TS_prev_time)"/>
									<MiningField name="double(pstd_hour)"/>
								</MiningSchema>
								<Node score="0.36455359610653065">
									<True/>
									<Node score="-4.614853231237627">
										<SimplePredicate field="double(txn_amt_vs_acct_avg)" operator="lessOrEqual" value="0.07774779200553894"/>
										<Node score="1.4448605933660685">
											<SimplePredicate field="double(TS_prev_time)" operator="lessOrEqual" value="16781.0"/>
										</Node>
									</Node>
									<Node score="-1.0142815865029429">
										<SimplePredicate field="double(TS_prev_time)" operator="lessOrEqual" value="171.0"/>
										<Node score="5.763189948358139">
											<SimplePredicate field="double(txn_amt_vs_acct_avg)" operator="lessOrEqual" value="0.8199069201946259"/>
										</Node>
									</Node>
									<Node score="-0.7215407641717437">
										<SimplePredicate field="double(pstd_hour)" operator="lessOrEqual" value="22.5"/>
										<Node score="-0.40219929440049396">
											<SimplePredicate field="double(txn_amt_vs_acct_avg)" operator="lessOrEqual" value="0.11352847889065742"/>
										</Node>
									</Node>
									<Node score="38.3757394469922">
										<SimplePredicate field="double(TS_prev_time)" operator="lessOrEqual" value="4120.5"/>
									</Node>
								</Node>
							</TreeModel>
						</Segment>
						<Segment id="4">
							<True/>
							<TreeModel functionName="regression" missingValueStrategy="nullPrediction" noTrueChildStrategy="returnLastPrediction">
								<MiningSchema>
									<MiningField name="double(txn_amt_vs_acct_avg)"/>
									<MiningField name="double(TS_prev_time)"/>
									<MiningField name="double(TO_cur_sumPeriod2)"/>
								</MiningSchema>
								<Node score="-0.6447495536686703">
									<True/>
									<Node score="-6.972813958016776">
										<SimplePredicate field="double(txn_amt_vs_acct_avg)" operator="lessOrEqual" value="0.06967474520206451"/>
										<Node score="1.0000794450255965">
											<SimplePredicate field="double(txn_amt_vs_acct_avg)" operator="lessOrEqual" value="0.03476502187550068"/>
										</Node>
									</Node>
									<Node score="4.261699402381065">
										<SimplePredicate field="double(TS_prev_time)" operator="lessOrEqual" value="169.5"/>
									</Node>
									<Node score="-1.2597216566765819">
										<SimplePredicate field="double(txn_amt_vs_acct_avg)" operator="lessOrEqual" value="0.10764865204691887"/>
										<Node score="1.20504729030341">
											<SimplePredicate field="double(TO_cur_sumPeriod2)" operator="lessOrEqual" value="481281.9375"/>
										</Node>
									</Node>
									<Node score="-0.6636009728146892">
										<SimplePredicate field="double(txn_amt_vs_acct_avg)" operator="lessOrEqual" value="0.11679445952177048"/>
									</Node>
								</Node>
							</TreeModel>
						</Segment>
						<Segment id="5">
							<True/>
							<TreeModel functionName="regression" missingValueStrategy="nullPrediction" noTrueChildStrategy="returnLastPrediction">
								<MiningSchema>
									<MiningField name="double(txn_amt_vs_acct_avg)"/>
									<MiningField name="double(txn_amt)"/>
									<MiningField name="double(TS_prev_time)"/>
									<MiningField name="double(pstd_hour)"/>
								</MiningSchema>
								<Node score="-0.8010045460717592">
									<True/>
									<Node score="-15.366577717519187">
										<SimplePredicate field="double(txn_amt_vs_acct_avg)" operator="lessOrEqual" value="0.06834790855646133"/>
										<Node score="1.0144124150349432">
											<SimplePredicate field="double(pstd_hour)" operator="lessOrEqual" value="5.0"/>
										</Node>
									</Node>
									<Node score="-1.2376034143747552">
										<SimplePredicate field="double(txn_amt_vs_acct_avg)" operator="lessOrEqual" value="0.10781455412507057"/>
										<Node score="1.0885465603078899">
											<SimplePredicate field="double(txn_amt)" operator="lessOrEqual" value="5210.902587890625"/>
										</Node>
									</Node>
									<Node score="0.44957638279563295">
										<SimplePredicate field="double(TS_prev_time)" operator="lessOrEqual" value="29530.5"/>
										<Node score="5.823546230102093">
											<SimplePredicate field="double(txn_amt)" operator="lessOrEqual" value="3183.1300048828125"/>
										</Node>
									</Node>
									<Node score="-1.267546394171246">
										<SimplePredicate field="double(txn_amt_vs_acct_avg)" operator="lessOrEqual" value="0.11996791884303093"/>
									</Node>
								</Node>
							</TreeModel>
						</Segment>
						<Segment id="6">
							<True/>
							<TreeModel functionName="regression" missingValueStrategy="nullPrediction" noTrueChildStrategy="returnLastPrediction">
								<MiningSchema>
									<MiningField name="double(txn_amt_vs_acct_avg)"/>
									<MiningField name="double(txn_amt)"/>
									<MiningField name="double(TS_prev_time)"/>
									<MiningField name="double(pstd_hour)"/>
								</MiningSchema>
								<Node score="-0.5710411740046459">
									<True/>
									<Node score="-19.34305193523127">
										<SimplePredicate field="double(txn_amt_vs_acct_avg)" operator="lessOrEqual" value="0.0632738284766674"/>
										<Node score="1.0305623967912592">
											<SimplePredicate field="double(txn_amt)" operator="lessOrEqual" value="2497.4749755859375"/>
										</Node>
									</Node>
									<Node score="-1.0165707015616836">
										<SimplePredicate field="double(TS_prev_time)" operator="lessOrEqual" value="169.5"/>
										<Node score="6.704623850725813">
											<SimplePredicate field="double(pstd_hour)" operator="lessOrEqual" value="10.5"/>
										</Node>
									</Node>
									<Node score="0.6522098657942814">
										<SimplePredicate field="double(txn_amt_vs_acct_avg)" operator="lessOrEqual" value="0.08576750755310059"/>
									</Node>
									<Node score="-0.8062285061945363">
										<SimplePredicate field="double(txn_amt_vs_acct_avg)" operator="lessOrEqual" value="0.10289561748504639"/>
									</Node>
								</Node>
							</TreeModel>
						</Segment>
						<Segment id="7">
							<True/>
							<TreeModel functionName="regression" missingValueStrategy="nullPrediction" noTrueChildStrategy="returnLastPrediction">
								<MiningSchema>
									<MiningField name="double(txn_amt_vs_acct_avg)"/>
									<MiningField name="double(txn_amt)"/>
									<MiningField name="double(TS_prev_time)"/>
									<MiningField name="double(pstd_hour)"/>
								</MiningSchema>
								<Node score="-0.6686903077093811">
									<True/>
									<Node score="-8.31294445726297">
										<SimplePredicate field="double(txn_amt_vs_acct_avg)" operator="lessOrEqual" value="0.0632738284766674"/>
										<Node score="1.0407270467808196">
											<SimplePredicate field="double(TS_prev_time)" operator="lessOrEqual" value="14321.0"/>
										</Node>
									</Node>
									<Node score="-1.203215677576139">
										<SimplePredicate field="double(txn_amt_vs_acct_avg)" operator="lessOrEqual" value="0.10764865204691887"/>
										<Node score="1.2175380554647173">
											<SimplePredicate field="double(txn_amt)" operator="lessOrEqual" value="5073.320068359375"/>
										</Node>
									</Node>
									<Node score="11.343928724397207">
										<SimplePredicate field="double(TS_prev_time)" operator="lessOrEqual" value="1682.0"/>
										<Node score="0.6805025152529033">
											<SimplePredicate field="double(pstd_hour)" operator="lessOrEqual" value="21.5"/>
										</Node>
									</Node>
									<Node score="-0.5432964275807907">
										<SimplePredicate field="double(txn_amt_vs_acct_avg)" operator="lessOrEqual" value="0.11996791884303093"/>
									</Node>
								</Node>
							</TreeModel>
						</Segment>
						<Segment id="8">
							<True/>
							<TreeModel functionName="regression" missingValueStrategy="nullPrediction" noTrueChildStrategy="returnLastPrediction">
								<MiningSchema>
									<MiningField name="double(txn_amt_vs_acct_avg)"/>
									<MiningField name="double(txn_amt)"/>
									<MiningField name="double(TS_prev_time)"/>
								</MiningSchema>
								<Node score="-0.6064476307846478">
									<True/>
									<Node score="-3.574756806353247">
										<SimplePredicate field="double(txn_amt_vs_acct_avg)" operator="lessOrEqual" value="0.06967474520206451"/>
										<Node score="1.0571303695553103">
											<SimplePredicate field="double(txn_amt_vs_acct_avg)" operator="lessOrEqual" value="0.04202948696911335"/>
										</Node>
									</Node>
									<Node score="3.4392576511175244">
										<SimplePredicate field="double(TS_prev_time)" operator="lessOrEqual" value="169.5"/>
									</Node>
									<Node score="-1.2096672079387998">
										<SimplePredicate field="double(txn_amt_vs_acct_avg)" operator="lessOrEqual" value="0.10781455412507057"/>
										<Node score="0.7659847764338">
											<SimplePredicate field="double(txn_amt)" operator="lessOrEqual" value="5210.902587890625"/>
										</Node>
									</Node>
									<Node score="-1.2356175837393093">
										<SimplePredicate field="double(txn_amt_vs_acct_avg)" operator="lessOrEqual" value="0.11996791884303093"/>
									</Node>
								</Node>
							</TreeModel>
						</Segment>
						<Segment id="9">
							<True/>
							<TreeModel functionName="regression" missingValueStrategy="nullPrediction" noTrueChildStrategy="returnLastPrediction">
								<MiningSchema>
									<MiningField name="double(txn_amt_vs_acct_avg)"/>
									<MiningField name="double(TS_prev_time)"/>
									<MiningField name="double(pstd_hour)"/>
								</MiningSchema>
								<Node score="-0.7541603448398659">
									<True/>
									<Node score="-3.7482810776803195">
										<SimplePredicate field="double(txn_amt_vs_acct_avg)" operator="lessOrEqual" value="0.0745132565498352"/>
										<Node score="0.592427445555514">
											<SimplePredicate field="double(pstd_hour)" operator="lessOrEqual" value="4.5"/>
										</Node>
									</Node>
									<Node score="1.0063434286407469">
										<SimplePredicate field="double(txn_amt_vs_acct_avg)" operator="lessOrEqual" value="0.09711470454931259"/>
									</Node>
									<Node score="-1.0267297041877554">
										<SimplePredicate field="double(TS_prev_time)" operator="lessOrEqual" value="169.5"/>
										<Node score="3.9910377073578887">
											<SimplePredicate field="double(txn_amt_vs_acct_avg)" operator="lessOrEqual" value="0.8199069201946259"/>
										</Node>
									</Node>
									<Node score="1.047328390452079">
										<SimplePredicate field="double(TS_prev_time)" operator="lessOrEqual" value="17047.0"/>
									</Node>
								</Node>
							</TreeModel>
						</Segment>
						<Segment id="10">
							<True/>
							<TreeModel functionName="regression" missingValueStrategy="nullPrediction" noTrueChildStrategy="returnLastPrediction">
								<MiningSchema>
									<MiningField name="double(txn_amt_vs_acct_avg)"/>
									<MiningField name="double(TS_prev_time)"/>
									<MiningField name="double(TO_cur_cntPeriod2)"/>
								</MiningSchema>
								<Node score="-0.5414252595924647">
									<True/>
									<Node score="-2.578978997464909">
										<SimplePredicate field="double(txn_amt_vs_acct_avg)" operator="lessOrEqual" value="0.0745132565498352"/>
										<Node score="1.0003142597385615">
											<SimplePredicate field="double(txn_amt_vs_acct_avg)" operator="lessOrEqual" value="0.03476502187550068"/>
										</Node>
									</Node>
									<Node score="-1.0278608025937557">
										<SimplePredicate field="double(TS_prev_time)" operator="lessOrEqual" value="169.5"/>
										<Node score="4.2434310615986215">
											<SimplePredicate field="double(TO_cur_cntPeriod2)" operator="lessOrEqual" value="9.5"/>
										</Node>
									</Node>
									<Node score="0.5498305396151636">
										<SimplePredicate field="double(txn_amt_vs_acct_avg)" operator="lessOrEqual" value="0.09711470454931259"/>
									</Node>
									<Node score="-1.2378229761900674">
										<SimplePredicate field="double(txn_amt_vs_acct_avg)" operator="lessOrEqual" value="0.11440819501876831"/>
									</Node>
								</Node>
							</TreeModel>
						</Segment>
						<Segment id="11">
							<True/>
							<TreeModel functionName="regression" missingValueStrategy="nullPrediction" noTrueChildStrategy="returnLastPrediction">
								<MiningSchema>
									<MiningField name="double(txn_amt_vs_acct_avg)"/>
									<MiningField name="double(TS_prev_time)"/>
									<MiningField name="double(pstd_hour)"/>
									<MiningField name="double(TO_cur_cntPeriod4)"/>
								</MiningSchema>
								<Node score="8.420927335480838">
									<True/>
									<Node score="-3.23255760782194">
										<SimplePredicate field="double(txn_amt_vs_acct_avg)" operator="lessOrEqual" value="0.07680854573845863"/>
										<Node score="0.6656546858719204">
											<SimplePredicate field="double(pstd_hour)" operator="lessOrEqual" value="4.5"/>
										</Node>
									</Node>
									<Node score="2.605497975957688">
										<SimplePredicate field="double(TS_prev_time)" operator="lessOrEqual" value="169.5"/>
									</Node>
									<Node score="-0.5255353751581178">
										<SimplePredicate field="double(txn_amt_vs_acct_avg)" operator="lessOrEqual" value="0.1174030601978302"/>
										<Node score="1.500313783689805">
											<SimplePredicate field="double(pstd_hour)" operator="lessOrEqual" value="8.5"/>
										</Node>
									</Node>
									<Node score="-0.706479779171217">
										<SimplePredicate field="double(TO_cur_cntPeriod4)" operator="lessOrEqual" value="92.5"/>
									</Node>
								</Node>
							</TreeModel>
						</Segment>
						<Segment id="12">
							<True/>
							<TreeModel functionName="regression" missingValueStrategy="nullPrediction" noTrueChildStrategy="returnLastPrediction">
								<MiningSchema>
									<MiningField name="double(txn_amt_vs_acct_avg)"/>
									<MiningField name="double(txn_amt)"/>
									<MiningField name="double(TS_prev_time)"/>
								</MiningSchema>
								<Node score="-0.5733371408607496">
									<True/>
									<Node score="-3.482024368321652">
										<SimplePredicate field="double(txn_amt_vs_acct_avg)" operator="lessOrEqual" value="0.0632738284766674"/>
										<Node score="1.0668740675395534">
											<SimplePredicate field="double(TS_prev_time)" operator="lessOrEqual" value="16781.0"/>
										</Node>
									</Node>
									<Node score="0.7478382742214575">
										<SimplePredicate field="double(txn_amt_vs_acct_avg)" operator="lessOrEqual" value="0.08576750755310059"/>
									</Node>
									<Node score="-1.0287635602024199">
										<SimplePredicate field="double(TS_prev_time)" operator="lessOrEqual" value="169.5"/>
										<Node score="3.421351865154373">
											<SimplePredicate field="double(txn_amt)" operator="lessOrEqual" value="97732.0390625"/>
										</Node>
									</Node>
									<Node score="-0.5715266074544774">
										<SimplePredicate field="double(txn_amt_vs_acct_avg)" operator="lessOrEqual" value="0.11352847889065742"/>
									</Node>
								</Node>
							</TreeModel>
						</Segment>
						<Segment id="13">
							<True/>
							<TreeModel functionName="regression" missingValueStrategy="nullPrediction" noTrueChildStrategy="returnLastPrediction">
								<MiningSchema>
									<MiningField name="double(txn_amt_vs_acct_avg)"/>
									<MiningField name="double(TS_prev_time)"/>
									<MiningField name="double(pstd_hour)"/>
								</MiningSchema>
								<Node score="1.33040246207751">
									<True/>
									<Node score="-3.615201583481074">
										<SimplePredicate field="double(txn_amt_vs_acct_avg)" operator="lessOrEqual" value="0.05547970347106457"/>
										<Node score="1.0294651042356904">
											<SimplePredicate field="double(TS_prev_time)" operator="lessOrEqual" value="15462.5"/>
										</Node>
									</Node>
									<Node score="0.706645551279839">
										<SimplePredicate field="double(pstd_hour)" operator="lessOrEqual" value="3.5"/>
										<Node score="2.054586559077284">
											<SimplePredicate field="double(txn_amt_vs_acct_avg)" operator="lessOrEqual" value="0.1330282837152481"/>
										</Node>
										<Node score="7.433941429086545">
											<SimplePredicate field="double(TS_prev_time)" operator="lessOrEqual" value="776.5"/>
										</Node>
									</Node>
									<Node score="-1.1133906461297254">
										<SimplePredicate field="double(txn_amt_vs_acct_avg)" operator="lessOrEqual" value="0.0952923633158207"/>
									</Node>
									<Node score="-0.8013071914574957">
										<SimplePredicate field="double(pstd_hour)" operator="lessOrEqual" value="22.5"/>
									</Node>
								</Node>
							</TreeModel>
						</Segment>
						<Segment id="14">
							<True/>
							<TreeModel functionName="regression" missingValueStrategy="nullPrediction" noTrueChildStrategy="returnLastPrediction">
								<MiningSchema>
									<MiningField name="double(txn_amt_vs_acct_avg)"/>
									<MiningField name="double(TS_prev_time)"/>
								</MiningSchema>
								<Node score="-0.7243455014118025">
									<True/>
									<Node score="-2.866702468317157">
										<SimplePredicate field="double(txn_amt_vs_acct_avg)" operator="lessOrEqual" value="0.055606767535209656"/>
									</Node>
									<Node score="0.6711583450640778">
										<SimplePredicate field="double(txn_amt_vs_acct_avg)" operator="lessOrEqual" value="0.08534879237413406"/>
									</Node>
									<Node score="1.273363067256718">
										<SimplePredicate field="double(TS_prev_time)" operator="lessOrEqual" value="169.5"/>
									</Node>
									<Node score="0.9429484965692911">
										<SimplePredicate field="double(TS_prev_time)" operator="lessOrEqual" value="29529.0"/>
									</Node>
								</Node>
							</TreeModel>
						</Segment>
						<Segment id="15">
							<True/>
							<TreeModel functionName="regression" missingValueStrategy="nullPrediction" noTrueChildStrategy="returnLastPrediction">
								<MiningSchema>
									<MiningField name="double(txn_amt_vs_acct_avg)"/>
								</MiningSchema>
								<Node score="-0.5386502625875591">
									<True/>
									<Node score="-3.0004766094463498">
										<SimplePredicate field="double(txn_amt_vs_acct_avg)" operator="lessOrEqual" value="0.05547970347106457"/>
									</Node>
									<Node score="0.702813073682863">
										<SimplePredicate field="double(txn_amt_vs_acct_avg)" operator="lessOrEqual" value="0.08576750755310059"/>
									</Node>
									<Node score="-0.7320663167547816">
										<SimplePredicate field="double(txn_amt_vs_acct_avg)" operator="lessOrEqual" value="0.10273431241512299"/>
									</Node>
									<Node score="1.019681898834445">
										<SimplePredicate field="double(txn_amt_vs_acct_avg)" operator="lessOrEqual" value="0.11033076047897339"/>
									</Node>
								</Node>
							</TreeModel>
						</Segment>
						<Segment id="16">
							<True/>
							<TreeModel functionName="regression" missingValueStrategy="nullPrediction" noTrueChildStrategy="returnLastPrediction">
								<MiningSchema>
									<MiningField name="double(txn_amt_vs_acct_avg)"/>
									<MiningField name="double(pstd_hour)"/>
									<MiningField name="double(TO_cur_sumPeriod3)"/>
									<MiningField name="double(TS_cur_cntPeriod1)"/>
								</MiningSchema>
								<Node score="1.2962641845724023">
									<True/>
									<Node score="-1.1717438723624498">
										<SimplePredicate field="double(txn_amt_vs_acct_avg)" operator="lessOrEqual" value="0.10134729743003845"/>
										<Node score="0.8536561645546022">
											<SimplePredicate field="double(pstd_hour)" operator="lessOrEqual" value="4.5"/>
										</Node>
										<Node score="-1.5487828627430928">
											<SimplePredicate field="double(TO_cur_sumPeriod3)" operator="lessOrEqual" value="286154.8046875"/>
										</Node>
									</Node>
									<Node score="1.2990687442096835">
										<SimplePredicate field="double(txn_amt_vs_acct_avg)" operator="lessOrEqual" value="0.10919403284788132"/>
									</Node>
									<Node score="5.552168270023404">
										<SimplePredicate field="double(pstd_hour)" operator="lessOrEqual" value="4.5"/>
										<Node score="-0.5931496088984319">
											<SimplePredicate field="double(TS_cur_cntPeriod1)" operator="lessOrEqual" value="0.5"/>
										</Node>
									</Node>
									<Node score="-0.8487707352883821">
										<SimplePredicate field="double(pstd_hour)" operator="lessOrEqual" value="22.5"/>
									</Node>
								</Node>
							</TreeModel>
						</Segment>
						<Segment id="17">
							<True/>
							<TreeModel functionName="regression" missingValueStrategy="nullPrediction" noTrueChildStrategy="returnLastPrediction">
								<MiningSchema>
									<MiningField name="double(txn_amt_vs_acct_avg)"/>
									<MiningField name="double(TS_prev_time)"/>
									<MiningField name="double(TS_cur_cntPeriod1)"/>
								</MiningSchema>
								<Node score="0.8154233453714649">
									<True/>
									<Node score="-3.364443343669589">
										<SimplePredicate field="double(txn_amt_vs_acct_avg)" operator="lessOrEqual" value="0.05547970347106457"/>
										<Node score="1.1214594425477507">
											<SimplePredicate field="double(TS_prev_time)" operator="lessOrEqual" value="13984.0"/>
										</Node>
									</Node>
									<Node score="0.864616242896792">
										<SimplePredicate field="double(txn_amt_vs_acct_avg)" operator="lessOrEqual" value="0.0826742835342884"/>
									</Node>
									<Node score="1.40991108129792">
										<SimplePredicate field="double(TS_prev_time)" operator="lessOrEqual" value="135.5"/>
									</Node>
									<Node score="-0.7281594697595897">
										<SimplePredicate field="double(TS_cur_cntPeriod1)" operator="lessOrEqual" value="0.5"/>
									</Node>
								</Node>
							</TreeModel>
						</Segment>
						<Segment id="18">
							<True/>
							<TreeModel functionName="regression" missingValueStrategy="nullPrediction" noTrueChildStrategy="returnLastPrediction">
								<MiningSchema>
									<MiningField name="double(txn_amt_vs_acct_avg)"/>
									<MiningField name="double(txn_amt)"/>
									<MiningField name="double(TS_prev_time)"/>
									<MiningField name="double(pstd_hour)"/>
								</MiningSchema>
								<Node score="-0.7166111972712087">
									<True/>
									<Node score="-1.0355860497893614">
										<SimplePredicate field="double(TS_prev_time)" operator="lessOrEqual" value="171.0"/>
										<Node score="2.4379859629620366">
											<SimplePredicate field="double(txn_amt)" operator="lessOrEqual" value="64278.443359375"/>
										</Node>
									</Node>
									<Node score="-1.9667167347682921">
										<SimplePredicate field="double(txn_amt_vs_acct_avg)" operator="lessOrEqual" value="0.06882324442267418"/>
										<Node score="0.6717186303339447">
											<SimplePredicate field="double(pstd_hour)" operator="lessOrEqual" value="4.5"/>
										</Node>
									</Node>
									<Node score="-1.2140327103821227">
										<SimplePredicate field="double(txn_amt_vs_acct_avg)" operator="lessOrEqual" value="0.10764865204691887"/>
										<Node score="1.1767532059581824">
											<SimplePredicate field="double(txn_amt)" operator="lessOrEqual" value="7882.0400390625"/>
										</Node>
									</Node>
									<Node score="0.7521118665899258">
										<SimplePredicate field="double(TS_prev_time)" operator="lessOrEqual" value="30777.5"/>
									</Node>
								</Node>
							</TreeModel>
						</Segment>
						<Segment id="19">
							<True/>
							<TreeModel functionName="regression" missingValueStrategy="nullPrediction" noTrueChildStrategy="returnLastPrediction">
								<MiningSchema>
									<MiningField name="double(txn_amt_vs_acct_avg)"/>
									<MiningField name="double(txn_amt)"/>
									<MiningField name="double(TS_prev_time)"/>
									<MiningField name="double(pstd_hour)"/>
									<MiningField name="double(TO_cur_cntPeriod4)"/>
									<MiningField name="double(balancePostEvt)"/>
									<MiningField name="double(TO_cur_sumPeriod4)"/>
								</MiningSchema>
								<Node score="5.986952178279967">
									<True/>
									<Node score="-0.8511089249939452">
										<SimplePredicate field="double(pstd_hour)" operator="lessOrEqual" value="4.5"/>
										<Node score="10.685796463402077">
											<SimplePredicate field="double(TS_prev_time)" operator="lessOrEqual" value="30840.5"/>
											<Node score="4.10345008606892">
												<SimplePredicate field="double(txn_amt)" operator="lessOrEqual" value="4026.2049560546875"/>
											</Node>
											<Node score="-0.8289022167955312">
												<SimplePredicate field="double(balancePostEvt)" operator="lessOrEqual" value="217.56500625610352"/>
											</Node>
										</Node>
										<Node score="15.791409562183377">
											<SimplePredicate field="double(txn_amt)" operator="lessOrEqual" value="4979.08740234375"/>
											<Node score="0.5022577879396973">
												<SimplePredicate field="double(txn_amt)" operator="lessOrEqual" value="4507.8701171875"/>
											</Node>
										</Node>
										<Node score="-1.258430923332325">
											<SimplePredicate field="double(txn_amt_vs_acct_avg)" operator="lessOrEqual" value="0.1522156372666359"/>
										</Node>
									</Node>
									<Node score="-1.2183771747312981">
										<SimplePredicate field="double(txn_amt_vs_acct_avg)" operator="lessOrEqual" value="0.0871628113090992"/>
									</Node>
									<Node score="2.122207878622176">
										<SimplePredicate field="double(txn_amt_vs_acct_avg)" operator="lessOrEqual" value="0.11996791884303093"/>
										<Node score="-1.1840264741625168">
											<SimplePredicate field="double(TO_cur_sumPeriod4)" operator="lessOrEqual" value="1472240.0625"/>
										</Node>
									</Node>
									<Node score="-0.7490938053999953">
										<SimplePredicate field="double(TO_cur_cntPeriod4)" operator="lessOrEqual" value="92.5"/>
									</Node>
								</Node>
							</TreeModel>
						</Segment>
						<Segment id="20">
							<True/>
							<TreeModel functionName="regression" missingValueStrategy="nullPrediction" noTrueChildStrategy="returnLastPrediction">
								<MiningSchema>
									<MiningField name="double(txn_amt_vs_acct_avg)"/>
									<MiningField name="double(TS_prev_time)"/>
									<MiningField name="double(TO_cur_sumPeriod2)"/>
									<MiningField name="double(pstd_hour)"/>
								</MiningSchema>
								<Node score="-0.4071826789814305">
									<True/>
									<Node score="-1.9239301706072693">
										<SimplePredicate field="double(txn_amt_vs_acct_avg)" operator="lessOrEqual" value="0.07441163808107376"/>
										<Node score="0.5404730905406967">
											<SimplePredicate field="double(pstd_hour)" operator="lessOrEqual" value="4.5"/>
										</Node>
									</Node>
									<Node score="0.6392245133212523">
										<SimplePredicate field="double(txn_amt_vs_acct_avg)" operator="lessOrEqual" value="0.10764865204691887"/>
									</Node>
									<Node score="-1.038350316065426">
										<SimplePredicate field="double(TS_prev_time)" operator="lessOrEqual" value="171.0"/>
										<Node score="1.9435477451706988">
											<SimplePredicate field="double(TO_cur_sumPeriod2)" operator="lessOrEqual" value="1169452.9375"/>
										</Node>
									</Node>
									<Node score="-1.1629642485846137">
										<SimplePredicate field="double(txn_amt_vs_acct_avg)" operator="lessOrEqual" value="0.11440819501876831"/>
									</Node>
								</Node>
							</TreeModel>
						</Segment>
						<Segment id="21">
							<True/>
							<TreeModel functionName="regression" missingValueStrategy="nullPrediction" noTrueChildStrategy="returnLastPrediction">
								<MiningSchema>
									<MiningField name="double(txn_amt_vs_acct_avg)"/>
									<MiningField name="double(TS_prev_time)"/>
								</MiningSchema>
								<Node score="-0.7187847271391588">
									<True/>
									<Node score="-1.3082114158974871">
										<SimplePredicate field="double(txn_amt_vs_acct_avg)" operator="lessOrEqual" value="0.06967474520206451"/>
										<Node score="1.0012929933480879">
											<SimplePredicate field="double(txn_amt_vs_acct_avg)" operator="lessOrEqual" value="0.034456685185432434"/>
										</Node>
									</Node>
									<Node score="0.335778692023465">
										<SimplePredicate field="double(txn_amt_vs_acct_avg)" operator="lessOrEqual" value="0.08726373687386513"/>
									</Node>
									<Node score="0.22883912030848633">
										<SimplePredicate field="double(TS_prev_time)" operator="lessOrEqual" value="30777.5"/>
										<Node score="3.4706344355267675">
											<SimplePredicate field="double(txn_amt_vs_acct_avg)" operator="lessOrEqual" value="0.16637956351041794"/>
										</Node>
									</Node>
									<Node score="-1.2119098038992437">
										<SimplePredicate field="double(txn_amt_vs_acct_avg)" operator="lessOrEqual" value="0.11996791884303093"/>
									</Node>
								</Node>
							</TreeModel>
						</Segment>
						<Segment id="22">
							<True/>
							<TreeModel functionName="regression" missingValueStrategy="nullPrediction" noTrueChildStrategy="returnLastPrediction">
								<MiningSchema>
									<MiningField name="double(txn_amt_vs_acct_avg)"/>
									<MiningField name="double(txn_amt)"/>
									<MiningField name="double(TS_prev_time)"/>
									<MiningField name="double(pstd_hour)"/>
								</MiningSchema>
								<Node score="-0.7049408471213352">
									<True/>
									<Node score="4.8043166179998105">
										<SimplePredicate field="double(TS_prev_time)" operator="lessOrEqual" value="1682.0"/>
										<Node score="13.980370733375139">
											<SimplePredicate field="double(pstd_hour)" operator="lessOrEqual" value="21.5"/>
											<Node score="2.7635016070272744">
												<SimplePredicate field="double(txn_amt)" operator="lessOrEqual" value="5104.625"/>
											</Node>
											<Node score="-0.6061092306543848">
												<SimplePredicate field="double(TS_prev_time)" operator="lessOrEqual" value="1592.5"/>
											</Node>
										</Node>
									</Node>
									<Node score="-1.7792501925389423">
										<SimplePredicate field="double(txn_amt_vs_acct_avg)" operator="lessOrEqual" value="0.0745132565498352"/>
										<Node score="0.6341395368801048">
											<SimplePredicate field="double(pstd_hour)" operator="lessOrEqual" value="4.5"/>
										</Node>
									</Node>
									<Node score="0.4650882298753616">
										<SimplePredicate field="double(txn_amt_vs_acct_avg)" operator="lessOrEqual" value="0.10764865204691887"/>
									</Node>
									<Node score="0.6008829135688477">
										<SimplePredicate field="double(pstd_hour)" operator="lessOrEqual" value="4.5"/>
									</Node>
								</Node>
							</TreeModel>
						</Segment>
						<Segment id="23">
							<True/>
							<TreeModel functionName="regression" missingValueStrategy="nullPrediction" noTrueChildStrategy="returnLastPrediction">
								<MiningSchema>
									<MiningField name="double(txn_amt_vs_acct_avg)"/>
									<MiningField name="double(TS_prev_time)"/>
									<MiningField name="double(pstd_hour)"/>
									<MiningField name="double(TS_cur_cntPeriod1)"/>
									<MiningField name="double(TO_cur_sumPeriod4)"/>
								</MiningSchema>
								<Node score="-0.6914775428736879">
									<True/>
									<Node score="0.4806710701092692">
										<SimplePredicate field="double(txn_amt_vs_acct_avg)" operator="lessOrEqual" value="0.07680854573845863"/>
										<Node score="-1.7463576678518073">
											<SimplePredicate field="double(TS_cur_cntPeriod1)" operator="lessOrEqual" value="0.5"/>
										</Node>
									</Node>
									<Node score="3.327822727694426">
										<SimplePredicate field="double(pstd_hour)" operator="lessOrEqual" value="4.5"/>
										<Node score="2.5967683929182113">
											<SimplePredicate field="double(TS_prev_time)" operator="lessOrEqual" value="493.5"/>
										</Node>
										<Node score="-0.44247372434133236">
											<SimplePredicate field="double(TS_cur_cntPeriod1)" operator="lessOrEqual" value="0.5"/>
										</Node>
									</Node>
									<Node score="0.11952982267485979">
										<SimplePredicate field="double(txn_amt_vs_acct_avg)" operator="lessOrEqual" value="0.12016775086522102"/>
										<Node score="-1.187561655158494">
											<SimplePredicate field="double(TO_cur_sumPeriod4)" operator="lessOrEqual" value="1016305.25"/>
										</Node>
									</Node>
									<Node score="-1.0532922389067252">
										<SimplePredicate field="double(TS_prev_time)" operator="lessOrEqual" value="160.5"/>
									</Node>
								</Node>
							</TreeModel>
						</Segment>
						<Segment id="24">
							<True/>
							<TreeModel functionName="regression" missingValueStrategy="nullPrediction" noTrueChildStrategy="returnLastPrediction">
								<MiningSchema>
									<MiningField name="double(txn_amt_vs_acct_avg)"/>
									<MiningField name="double(TS_prev_time)"/>
									<MiningField name="double(pstd_hour)"/>
								</MiningSchema>
								<Node score="-0.6117272004703209">
									<True/>
									<Node score="-1.9120617739740275">
										<SimplePredicate field="double(txn_amt_vs_acct_avg)" operator="lessOrEqual" value="0.06967474520206451"/>
										<Node score="0.6814951246275124">
											<SimplePredicate field="double(pstd_hour)" operator="lessOrEqual" value="4.5"/>
										</Node>
									</Node>
									<Node score="0.49753284352716093">
										<SimplePredicate field="double(txn_amt_vs_acct_avg)" operator="lessOrEqual" value="0.09111307188868523"/>
									</Node>
									<Node score="0.44532812498268803">
										<SimplePredicate field="double(TS_prev_time)" operator="lessOrEqual" value="29529.0"/>
										<Node score="2.1400386591881286">
											<SimplePredicate field="double(txn_amt_vs_acct_avg)" operator="lessOrEqual" value="0.14222636073827744"/>
										</Node>
									</Node>
									<Node score="-1.1849501510727491">
										<SimplePredicate field="double(txn_amt_vs_acct_avg)" operator="lessOrEqual" value="0.11996791884303093"/>
									</Node>
								</Node>
							</TreeModel>
						</Segment>
						<Segment id="25">
							<True/>
							<TreeModel functionName="regression" missingValueStrategy="nullPrediction" noTrueChildStrategy="returnLastPrediction">
								<MiningSchema>
									<MiningField name="double(txn_amt_vs_acct_avg)"/>
									<MiningField name="double(TS_prev_time)"/>
									<MiningField name="double(pstd_hour)"/>
								</MiningSchema>
								<Node score="-0.6960681725689221">
									<True/>
									<Node score="-1.4396574355242695">
										<SimplePredicate field="double(txn_amt_vs_acct_avg)" operator="lessOrEqual" value="0.0745132565498352"/>
										<Node score="0.9448169611280138">
											<SimplePredicate field="double(TS_prev_time)" operator="lessOrEqual" value="16781.0"/>
										</Node>
									</Node>
									<Node score="0.5193927470503839">
										<SimplePredicate field="double(pstd_hour)" operator="lessOrEqual" value="4.5"/>
										<Node score="1.8611565733683721">
											<SimplePredicate field="double(txn_amt_vs_acct_avg)" operator="lessOrEqual" value="0.1529179811477661"/>
										</Node>
										<Node score="2.146006968644322">
											<SimplePredicate field="double(TS_prev_time)" operator="lessOrEqual" value="431.5"/>
										</Node>
									</Node>
									<Node score="-0.8414415243362424">
										<SimplePredicate field="double(txn_amt_vs_acct_avg)" operator="lessOrEqual" value="0.09935906901955605"/>
									</Node>
									<Node score="-1.0509032927757593">
										<SimplePredicate field="double(TS_prev_time)" operator="lessOrEqual" value="160.5"/>
									</Node>
								</Node>
							</TreeModel>
						</Segment>
						<Segment id="26">
							<True/>
							<TreeModel functionName="regression" missingValueStrategy="nullPrediction" noTrueChildStrategy="returnLastPrediction">
								<MiningSchema>
									<MiningField name="double(txn_amt_vs_acct_avg)"/>
									<MiningField name="double(txn_amt)"/>
									<MiningField name="double(TS_prev_time)"/>
								</MiningSchema>
								<Node score="-0.3524025109982734">
									<True/>
									<Node score="-1.502043521925077">
										<SimplePredicate field="double(txn_amt_vs_acct_avg)" operator="lessOrEqual" value="0.07441163808107376"/>
										<Node score="0.16149801992760743">
											<SimplePredicate field="double(txn_amt)" operator="lessOrEqual" value="3710.0699462890625"/>
										</Node>
									</Node>
									<Node score="0.9667104423049808">
										<SimplePredicate field="double(TS_prev_time)" operator="lessOrEqual" value="135.5"/>
									</Node>
									<Node score="0.41916387002616345">
										<SimplePredicate field="double(txn_amt_vs_acct_avg)" operator="lessOrEqual" value="0.09711470454931259"/>
									</Node>
									<Node score="-0.6723664964240726">
										<SimplePredicate field="double(txn_amt_vs_acct_avg)" operator="lessOrEqual" value="0.11440819501876831"/>
									</Node>
								</Node>
							</TreeModel>
						</Segment>
						<Segment id="27">
							<True/>
							<TreeModel functionName="regression" missingValueStrategy="nullPrediction" noTrueChildStrategy="returnLastPrediction">
								<MiningSchema>
									<MiningField name="double(txn_amt_vs_acct_avg)"/>
									<MiningField name="double(TS_prev_time)"/>
									<MiningField name="double(pstd_hour)"/>
								</MiningSchema>
								<Node score="0.7750280120536086">
									<True/>
									<Node score="-1.8794165384559747">
										<SimplePredicate field="double(txn_amt_vs_acct_avg)" operator="lessOrEqual" value="0.06967474520206451"/>
										<Node score="0.5990766236578328">
											<SimplePredicate field="double(pstd_hour)" operator="lessOrEqual" value="4.5"/>
										</Node>
									</Node>
									<Node score="0.7811836823010068">
										<SimplePredicate field="double(TS_prev_time)" operator="lessOrEqual" value="135.5"/>
									</Node>
									<Node score="-0.8474301263895363">
										<SimplePredicate field="double(pstd_hour)" operator="lessOrEqual" value="22.5"/>
										<Node score="0.6804671456647515">
											<SimplePredicate field="double(pstd_hour)" operator="lessOrEqual" value="4.5"/>
										</Node>
									</Node>
									<Node score="3.8437754912815145">
										<SimplePredicate field="double(txn_amt_vs_acct_avg)" operator="lessOrEqual" value="0.20028843730688095"/>
									</Node>
								</Node>
							</TreeModel>
						</Segment>
						<Segment id="28">
							<True/>
							<TreeModel functionName="regression" missingValueStrategy="nullPrediction" noTrueChildStrategy="returnLastPrediction">
								<MiningSchema>
									<MiningField name="double(txn_amt_vs_acct_avg)"/>
									<MiningField name="double(TS_prev_time)"/>
									<MiningField name="double(TO_cur_sumPeriod2)"/>
									<MiningField name="double(pstd_hour)"/>
									<MiningField name="double(TO_cur_cntPeriod4)"/>
								</MiningSchema>
								<Node score="4.30489236280284">
									<True/>
									<Node score="-1.188654496270428">
										<SimplePredicate field="double(txn_amt_vs_acct_avg)" operator="lessOrEqual" value="0.06967474520206451"/>
										<Node score="0.6503054301888176">
											<SimplePredicate field="double(pstd_hour)" operator="lessOrEqual" value="4.5"/>
										</Node>
									</Node>
									<Node score="-1.0425219937371508">
										<SimplePredicate field="double(TS_prev_time)" operator="lessOrEqual" value="174.0"/>
										<Node score="1.2567881500044615">
											<SimplePredicate field="double(TO_cur_sumPeriod2)" operator="lessOrEqual" value="744264.8125"/>
										</Node>
									</Node>
									<Node score="0.26768475079704873">
										<SimplePredicate field="double(txn_amt_vs_acct_avg)" operator="lessOrEqual" value="0.08726373687386513"/>
									</Node>
									<Node score="-0.3907368694060154">
										<SimplePredicate field="double(TO_cur_cntPeriod4)" operator="lessOrEqual" value="92.5"/>
									</Node>
								</Node>
							</TreeModel>
						</Segment>
						<Segment id="29">
							<True/>
							<TreeModel functionName="regression" missingValueStrategy="nullPrediction" noTrueChildStrategy="returnLastPrediction">
								<MiningSchema>
									<MiningField name="double(txn_amt_vs_acct_avg)"/>
									<MiningField name="double(txn_amt)"/>
									<MiningField name="double(TS_prev_time)"/>
									<MiningField name="double(balancePostEvt)"/>
									<MiningField name="double(TO_cur_sumPeriod4)"/>
									<MiningField name="double(TO_cur_sumPeriod1)"/>
								</MiningSchema>
								<Node score="0.5131184795757702">
									<True/>
									<Node score="-1.7675935407328338">
										<SimplePredicate field="double(txn_amt_vs_acct_avg)" operator="lessOrEqual" value="0.06967474520206451"/>
										<Node score="1.2670249448874846">
											<SimplePredicate field="double(TO_cur_sumPeriod1)" operator="lessOrEqual" value="6567.925048828125"/>
										</Node>
										<Node score="0.5901920925098232">
											<SimplePredicate field="double(TS_prev_time)" operator="lessOrEqual" value="9498.0"/>
										</Node>
									</Node>
									<Node score="1.2285155324778383">
										<SimplePredicate field="double(txn_amt)" operator="lessOrEqual" value="4975.71240234375"/>
										<Node score="2.9034852756831406">
											<SimplePredicate field="double(TS_prev_time)" operator="lessOrEqual" value="4629.5"/>
										</Node>
										<Node score="0.3880741697061853">
											<SimplePredicate field="double(TO_cur_sumPeriod4)" operator="lessOrEqual" value="635415.15625"/>
										</Node>
									</Node>
									<Node score="-1.211475965256616">
										<SimplePredicate field="double(txn_amt_vs_acct_avg)" operator="lessOrEqual" value="0.10450131446123123"/>
									</Node>
									<Node score="-1.0039687520494294">
										<SimplePredicate field="double(balancePostEvt)" operator="lessOrEqual" value="352.27500915527344"/>
									</Node>
								</Node>
							</TreeModel>
						</Segment>
						<Segment id="30">
							<True/>
							<TreeModel functionName="regression" missingValueStrategy="nullPrediction" noTrueChildStrategy="returnLastPrediction">
								<MiningSchema>
									<MiningField name="double(txn_amt_vs_acct_avg)"/>
									<MiningField name="double(txn_amt)"/>
									<MiningField name="double(TS_prev_time)"/>
									<MiningField name="double(pstd_hour)"/>
									<MiningField name="double(TO_cur_cntPeriod2)"/>
								</MiningSchema>
								<Node score="-0.6302664493396576">
									<True/>
									<Node score="3.2649513683847116">
										<SimplePredicate field="double(TS_prev_time)" operator="lessOrEqual" value="1682.0"/>
										<Node score="6.917190651785473">
											<SimplePredicate field="double(pstd_hour)" operator="lessOrEqual" value="21.5"/>
											<Node score="1.968317012000612">
												<SimplePredicate field="double(txn_amt)" operator="lessOrEqual" value="5564.304931640625"/>
											</Node>
											<Node score="-0.6141539052347155">
												<SimplePredicate field="double(TS_prev_time)" operator="lessOrEqual" value="1592.5"/>
											</Node>
										</Node>
									</Node>
									<Node score="-1.140940200977464">
										<SimplePredicate field="double(txn_amt_vs_acct_avg)" operator="lessOrEqual" value="0.10289561748504639"/>
										<Node score="0.9121292254711467">
											<SimplePredicate field="double(pstd_hour)" operator="lessOrEqual" value="4.5"/>
										</Node>
										<Node score="-1.1909039014301588">
											<SimplePredicate field="double(TO_cur_cntPeriod2)" operator="lessOrEqual" value="12.5"/>
										</Node>
									</Node>
									<Node score="0.5956834557511945">
										<SimplePredicate field="double(txn_amt_vs_acct_avg)" operator="lessOrEqual" value="0.1174030601978302"/>
									</Node>
									<Node score="0.8640357705697114">
										<SimplePredicate field="double(pstd_hour)" operator="lessOrEqual" value="2.5"/>
									</Node>
								</Node>
							</TreeModel>
						</Segment>
						<Segment id="31">
							<True/>
							<TreeModel functionName="regression" missingValueStrategy="nullPrediction" noTrueChildStrategy="returnLastPrediction">
								<MiningSchema>
									<MiningField name="double(txn_amt_vs_acct_avg)"/>
									<MiningField name="double(TS_prev_time)"/>
									<MiningField name="double(pstd_hour)"/>
									<MiningField name="double(TS_cur_cntPeriod1)"/>
								</MiningSchema>
								<Node score="0.2721895192511637">
									<True/>
									<Node score="0.28051920672486735">
										<SimplePredicate field="double(txn_amt_vs_acct_avg)" operator="lessOrEqual" value="0.0745132565498352"/>
										<Node score="-1.1912638451656112">
											<SimplePredicate field="double(TS_cur_cntPeriod1)" operator="lessOrEqual" value="0.5"/>
										</Node>
									</Node>
									<Node score="-0.3264624673457272">
										<SimplePredicate field="double(pstd_hour)" operator="lessOrEqual" value="22.5"/>
										<Node score="-1.2028317747768016">
											<SimplePredicate field="double(txn_amt_vs_acct_avg)" operator="lessOrEqual" value="0.11352847889065742"/>
											<Node score="0.3923396955665869">
												<SimplePredicate field="double(pstd_hour)" operator="lessOrEqual" value="9.5"/>
											</Node>
										</Node>
										<Node score="-1.0507709513303936">
											<SimplePredicate field="double(TS_prev_time)" operator="lessOrEqual" value="113.5"/>
										</Node>
									</Node>
									<Node score="2.9991735164296207">
										<SimplePredicate field="double(txn_amt_vs_acct_avg)" operator="lessOrEqual" value="0.18204529583454132"/>
									</Node>
									<Node score="1.3073495804021535">
										<SimplePredicate field="double(TS_prev_time)" operator="lessOrEqual" value="4120.5"/>
									</Node>
								</Node>
							</TreeModel>
						</Segment>
						<Segment id="32">
							<True/>
							<TreeModel functionName="regression" missingValueStrategy="nullPrediction" noTrueChildStrategy="returnLastPrediction">
								<MiningSchema>
									<MiningField name="double(txn_amt_vs_acct_avg)"/>
									<MiningField name="double(pstd_hour)"/>
									<MiningField name="double(TO_cur_cntPeriod4)"/>
									<MiningField name="double(TO_cur_sumPeriod3)"/>
								</MiningSchema>
								<Node score="3.285675002369811">
									<True/>
									<Node score="-1.0097786930607635">
										<SimplePredicate field="double(txn_amt_vs_acct_avg)" operator="lessOrEqual" value="0.06967474520206451"/>
										<Node score="0.5768888976441764">
											<SimplePredicate field="double(pstd_hour)" operator="lessOrEqual" value="4.5"/>
										</Node>
									</Node>
									<Node score="0.3469108569990081">
										<SimplePredicate field="double(txn_amt_vs_acct_avg)" operator="lessOrEqual" value="0.09711470454931259"/>
									</Node>
									<Node score="1.0933489563233911">
										<SimplePredicate field="double(txn_amt_vs_acct_avg)" operator="lessOrEqual" value="0.11996791884303093"/>
										<Node score="-1.1222320517896431">
											<SimplePredicate field="double(TO_cur_sumPeriod3)" operator="lessOrEqual" value="91537.546875"/>
										</Node>
									</Node>
									<Node score="-0.3840718455952884">
										<SimplePredicate field="double(TO_cur_cntPeriod4)" operator="lessOrEqual" value="93.5"/>
									</Node>
								</Node>
							</TreeModel>
						</Segment>
						<Segment id="33">
							<True/>
							<TreeModel functionName="regression" missingValueStrategy="nullPrediction" noTrueChildStrategy="returnLastPrediction">
								<MiningSchema>
									<MiningField name="double(txn_amt_vs_acct_avg)"/>
									<MiningField name="double(TS_prev_time)"/>
									<MiningField name="double(pstd_hour)"/>
									<MiningField name="double(TO_cur_sumPeriod3)"/>
								</MiningSchema>
								<Node score="-0.608741110328352">
									<True/>
									<Node score="-0.8795912030393398">
										<SimplePredicate field="double(txn_amt_vs_acct_avg)" operator="lessOrEqual" value="0.06967474520206451"/>
										<Node score="0.6071489684881299">
											<SimplePredicate field="double(TS_prev_time)" operator="lessOrEqual" value="16781.0"/>
										</Node>
									</Node>
									<Node score="0.2955886966248995">
										<SimplePredicate field="double(txn_amt_vs_acct_avg)" operator="lessOrEqual" value="0.08893495425581932"/>
									</Node>
									<Node score="1.2276238502428187">
										<SimplePredicate field="double(txn_amt_vs_acct_avg)" operator="lessOrEqual" value="0.11679445952177048"/>
										<Node score="-1.1130513987585005">
											<SimplePredicate field="double(TO_cur_sumPeriod3)" operator="lessOrEqual" value="115918.66796875"/>
										</Node>
									</Node>
									<Node score="0.7277596280257139">
										<SimplePredicate field="double(pstd_hour)" operator="lessOrEqual" value="4.5"/>
									</Node>
								</Node>
							</TreeModel>
						</Segment>
						<Segment id="34">
							<True/>
							<TreeModel functionName="regression" missingValueStrategy="nullPrediction" noTrueChildStrategy="returnLastPrediction">
								<MiningSchema>
									<MiningField name="double(txn_amt_vs_acct_avg)"/>
									<MiningField name="double(txn_amt)"/>
									<MiningField name="double(TS_prev_time)"/>
									<MiningField name="double(TO_cur_cntPeriod2)"/>
									<MiningField name="double(balancePostEvt)"/>
									<MiningField name="double(TO_cur_sumPeriod4)"/>
								</MiningSchema>
								<Node score="0.0579665009831331">
									<True/>
									<Node score="1.4820283963999346">
										<SimplePredicate field="double(txn_amt)" operator="lessOrEqual" value="4975.71240234375"/>
										<Node score="3.5376024362459084">
											<SimplePredicate field="double(TS_prev_time)" operator="lessOrEqual" value="4629.5"/>
											<Node score="1.153229741113074">
												<SimplePredicate field="double(TO_cur_cntPeriod2)" operator="lessOrEqual" value="5.5"/>
											</Node>
										</Node>
										<Node score="1.3433099716209074">
											<SimplePredicate field="double(TO_cur_sumPeriod4)" operator="lessOrEqual" value="1182148.0"/>
											<Node score="-0.5559932511997513">
												<SimplePredicate field="double(txn_amt_vs_acct_avg)" operator="lessOrEqual" value="0.11703135073184967"/>
											</Node>
										</Node>
									</Node>
									<Node score="-1.4445302421054902">
										<SimplePredicate field="double(txn_amt_vs_acct_avg)" operator="lessOrEqual" value="0.09639792889356613"/>
									</Node>
									<Node score="-1.002703435008763">
										<SimplePredicate field="double(balancePostEvt)" operator="lessOrEqual" value="352.27500915527344"/>
										<Node score="-1.0384354269408518">
											<SimplePredicate field="double(TS_prev_time)" operator="lessOrEqual" value="171.0"/>
										</Node>
									</Node>
									<Node score="20.085738271169507">
										<SimplePredicate field="double(balancePostEvt)" operator="lessOrEqual" value="2170.68994140625"/>
									</Node>
								</Node>
							</TreeModel>
						</Segment>
						<Segment id="35">
							<True/>
							<TreeModel functionName="regression" missingValueStrategy="nullPrediction" noTrueChildStrategy="returnLastPrediction">
								<MiningSchema>
									<MiningField name="double(txn_amt_vs_acct_avg)"/>
									<MiningField name="double(txn_amt)"/>
									<MiningField name="double(TS_prev_time)"/>
									<MiningField name="double(TO_cur_sumPeriod2)"/>
									<MiningField name="double(pstd_hour)"/>
									<MiningField name="double(TO_cur_cntPeriod4)"/>
									<MiningField name="double(TS_cur_cntPeriod1)"/>
									<MiningField name="double(balancePostEvt)"/>
								</MiningSchema>
								<Node score="1.175650967080037">
									<True/>
									<Node score="-1.0018856312765814">
										<SimplePredicate field="double(pstd_hour)" operator="lessOrEqual" value="4.5"/>
										<Node score="3.8445761389614193">
											<SimplePredicate field="double(txn_amt)" operator="lessOrEqual" value="4979.08740234375"/>
											<Node score="9.494883981385163">
												<SimplePredicate field="double(TS_cur_cntPeriod1)" operator="lessOrEqual" value="0.5"/>
												<Node score="-0.6570096178268723">
													<SimplePredicate field="double(txn_amt)" operator="lessOrEqual" value="4572.557373046875"/>
												</Node>
											</Node>
											<Node score="-1.0078770460389528">
												<SimplePredicate field="double(TO_cur_sumPeriod2)" operator="lessOrEqual" value="14607.9599609375"/>
											</Node>
										</Node>
										<Node score="4.022431268351927">
											<SimplePredicate field="double(TS_prev_time)" operator="lessOrEqual" value="29529.0"/>
											<Node score="-1.008571403090229">
												<SimplePredicate field="double(balancePostEvt)" operator="lessOrEqual" value="217.56500625610352"/>
											</Node>
										</Node>
										<Node score="0.5605796685809558">
											<SimplePredicate field="double(TO_cur_cntPeriod4)" operator="lessOrEqual" value="2.5"/>
										</Node>
									</Node>
									<Node score="0.24853861049982898">
										<SimplePredicate field="double(txn_amt_vs_acct_avg)" operator="lessOrEqual" value="0.10044010728597641"/>
										<Node score="-1.5003923087203443">
											<SimplePredicate field="double(pstd_hour)" operator="lessOrEqual" value="18.5"/>
										</Node>
									</Node>
									<Node score="-1.054560532083773">
										<SimplePredicate field="double(TS_prev_time)" operator="lessOrEqual" value="152.5"/>
									</Node>
									<Node score="-0.7813881917296882">
										<SimplePredicate field="double(pstd_hour)" operator="lessOrEqual" value="22.5"/>
									</Node>
								</Node>
							</TreeModel>
						</Segment>
						<Segment id="36">
							<True/>
							<TreeModel functionName="regression" missingValueStrategy="nullPrediction" noTrueChildStrategy="returnLastPrediction">
								<MiningSchema>
									<MiningField name="double(txn_amt_vs_acct_avg)"/>
									<MiningField name="double(TS_prev_time)"/>
									<MiningField name="double(TO_cur_cntPeriod4)"/>
									<MiningField name="double(TS_cur_cntPeriod1)"/>
									<MiningField name="double(TO_cur_sumPeriod1)"/>
								</MiningSchema>
								<Node score="2.687760076323531">
									<True/>
									<Node score="-0.6085946759187834">
										<SimplePredicate field="double(txn_amt_vs_acct_avg)" operator="lessOrEqual" value="0.0745132565498352"/>
										<Node score="-1.2638348403405577">
											<SimplePredicate field="double(TS_cur_cntPeriod1)" operator="lessOrEqual" value="0.5"/>
										</Node>
										<Node score="1.3159491842587183">
											<SimplePredicate field="double(TO_cur_sumPeriod1)" operator="lessOrEqual" value="120483.25"/>
										</Node>
									</Node>
									<Node score="0.46064069617183323">
										<SimplePredicate field="double(txn_amt_vs_acct_avg)" operator="lessOrEqual" value="0.09711470454931259"/>
									</Node>
									<Node score="-0.2991166074540147">
										<SimplePredicate field="double(TO_cur_cntPeriod4)" operator="lessOrEqual" value="93.5"/>
										<Node score="-1.04159042729647">
											<SimplePredicate field="double(TS_prev_time)" operator="lessOrEqual" value="113.5"/>
										</Node>
									</Node>
								</Node>
							</TreeModel>
						</Segment>
						<Segment id="37">
							<True/>
							<TreeModel functionName="regression" missingValueStrategy="nullPrediction" noTrueChildStrategy="returnLastPrediction">
								<MiningSchema>
									<MiningField name="double(txn_amt_vs_acct_avg)"/>
									<MiningField name="double(txn_amt)"/>
									<MiningField name="double(TS_prev_time)"/>
									<MiningField name="double(TO_cur_sumPeriod2)"/>
									<MiningField name="double(pstd_hour)"/>
									<MiningField name="double(TS_cur_cntPeriod1)"/>
								</MiningSchema>
								<Node score="-0.6637513732930893">
									<True/>
									<Node score="9.61942150370825">
										<SimplePredicate field="double(pstd_hour)" operator="lessOrEqual" value="4.5"/>
										<Node score="-0.804347992037158">
											<SimplePredicate field="double(TS_cur_cntPeriod1)" operator="lessOrEqual" value="0.5"/>
											<Node score="6.52820156205822">
												<SimplePredicate field="double(txn_amt)" operator="lessOrEqual" value="4979.387451171875"/>
												<Node score="-0.6987135424265445">
													<SimplePredicate field="double(txn_amt)" operator="lessOrEqual" value="4602.4951171875"/>
												</Node>
											</Node>
											<Node score="-1.299795856980002">
												<SimplePredicate field="double(txn_amt_vs_acct_avg)" operator="lessOrEqual" value="0.15402767062187195"/>
											</Node>
										</Node>
										<Node score="4.296856406899155">
											<SimplePredicate field="double(txn_amt)" operator="lessOrEqual" value="4545.9599609375"/>
											<Node score="-1.0074974025201922">
												<SimplePredicate field="double(TO_cur_sumPeriod2)" operator="lessOrEqual" value="14607.9599609375"/>
											</Node>
										</Node>
										<Node score="0.29166938684531846">
											<SimplePredicate field="double(txn_amt_vs_acct_avg)" operator="lessOrEqual" value="1.5660268068313599"/>
										</Node>
									</Node>
									<Node score="-1.0704762073086767">
										<SimplePredicate field="double(txn_amt_vs_acct_avg)" operator="lessOrEqual" value="0.08780132234096527"/>
									</Node>
									<Node score="-1.051182813951697">
										<SimplePredicate field="double(TS_prev_time)" operator="lessOrEqual" value="160.5"/>
									</Node>
									<Node score="1.95996354947002">
										<SimplePredicate field="double(TS_prev_time)" operator="lessOrEqual" value="1441.0"/>
									</Node>
								</Node>
							</TreeModel>
						</Segment>
						<Segment id="38">
							<True/>
							<TreeModel functionName="regression" missingValueStrategy="nullPrediction" noTrueChildStrategy="returnLastPrediction">
								<MiningSchema>
									<MiningField name="double(txn_amt_vs_acct_avg)"/>
									<MiningField name="double(txn_amt)"/>
									<MiningField name="double(TS_prev_time)"/>
									<MiningField name="double(pstd_hour)"/>
									<MiningField name="double(TO_cur_sumPeriod3)"/>
								</MiningSchema>
								<Node score="-0.7096623477934488">
									<True/>
									<Node score="0.4168749126458887">
										<SimplePredicate field="double(txn_amt_vs_acct_avg)" operator="lessOrEqual" value="0.10273431241512299"/>
										<Node score="-0.8172090107488537">
											<SimplePredicate field="double(pstd_hour)" operator="lessOrEqual" value="4.5"/>
											<Node score="0.7018697475104331">
												<SimplePredicate field="double(TO_cur_sumPeriod3)" operator="lessOrEqual" value="250990.0390625"/>
											</Node>
										</Node>
										<Node score="-1.4173933580246965">
											<SimplePredicate field="double(pstd_hour)" operator="lessOrEqual" value="19.5"/>
										</Node>
									</Node>
									<Node score="-0.3611574525258384">
										<SimplePredicate field="double(TS_prev_time)" operator="lessOrEqual" value="29529.0"/>
										<Node score="3.388778146109898">
											<SimplePredicate field="double(txn_amt)" operator="lessOrEqual" value="2695.1185302734375"/>
											<Node score="-1.0055764080711609">
												<SimplePredicate field="double(TO_cur_sumPeriod3)" operator="lessOrEqual" value="3782.7850341796875"/>
											</Node>
										</Node>
										<Node score="1.7624511299337404">
											<SimplePredicate field="double(pstd_hour)" operator="lessOrEqual" value="4.5"/>
										</Node>
									</Node>
									<Node score="-1.0883480261329874">
										<SimplePredicate field="double(txn_amt_vs_acct_avg)" operator="lessOrEqual" value="0.11996791884303093"/>
									</Node>
									<Node score="0.9929493183834054">
										<SimplePredicate field="double(txn_amt)" operator="lessOrEqual" value="4795.755126953125"/>
									</Node>
								</Node>
							</TreeModel>
						</Segment>
						<Segment id="39">
							<True/>
							<TreeModel functionName="regression" missingValueStrategy="nullPrediction" noTrueChildStrategy="returnLastPrediction">
								<MiningSchema>
									<MiningField name="double(txn_amt_vs_acct_avg)"/>
									<MiningField name="double(txn_amt)"/>
									<MiningField name="double(TS_prev_time)"/>
									<MiningField name="double(pstd_hour)"/>
									<MiningField name="double(TO_cur_cntPeriod4)"/>
									<MiningField name="double(pstd_day_of_week)"/>
								</MiningSchema>
								<Node score="2.3138991101845474">
									<True/>
									<Node score="-1.088821461000344">
										<SimplePredicate field="double(txn_amt)" operator="lessOrEqual" value="578.322265625"/>
										<Node score="1.5624334108935347">
											<SimplePredicate field="double(pstd_day_of_week)" operator="lessOrEqual" value="4.5"/>
										</Node>
									</Node>
									<Node score="-0.95391560576873">
										<SimplePredicate field="double(txn_amt_vs_acct_avg)" operator="lessOrEqual" value="0.0952923633158207"/>
										<Node score="0.7530350281962054">
											<SimplePredicate field="double(pstd_hour)" operator="lessOrEqual" value="4.5"/>
										</Node>
									</Node>
									<Node score="-0.38858243176978813">
										<SimplePredicate field="double(TO_cur_cntPeriod4)" operator="lessOrEqual" value="93.5"/>
										<Node score="-1.0408320860469458">
											<SimplePredicate field="double(TS_prev_time)" operator="lessOrEqual" value="113.5"/>
										</Node>
									</Node>
								</Node>
							</TreeModel>
						</Segment>
						<Segment id="40">
							<True/>
							<TreeModel functionName="regression" missingValueStrategy="nullPrediction" noTrueChildStrategy="returnLastPrediction">
								<MiningSchema>
									<MiningField name="double(txn_amt_vs_acct_avg)"/>
									<MiningField name="double(pstd_hour)"/>
									<MiningField name="double(TO_cur_cntPeriod4)"/>
									<MiningField name="double(TO_cur_sumPeriod3)"/>
								</MiningSchema>
								<Node score="2.0462605786617">
									<True/>
									<Node score="-1.14754575189394">
										<SimplePredicate field="double(txn_amt_vs_acct_avg)" operator="lessOrEqual" value="0.0952923633158207"/>
										<Node score="0.7850816829698867">
											<SimplePredicate field="double(pstd_hour)" operator="lessOrEqual" value="4.5"/>
										</Node>
										<Node score="-1.2324269626869264">
											<SimplePredicate field="double(TO_cur_sumPeriod3)" operator="lessOrEqual" value="286154.8046875"/>
										</Node>
									</Node>
									<Node score="-0.6816567069374746">
										<SimplePredicate field="double(TO_cur_cntPeriod4)" operator="lessOrEqual" value="93.5"/>
										<Node score="0.5584027518475195">
											<SimplePredicate field="double(txn_amt_vs_acct_avg)" operator="lessOrEqual" value="0.10809116065502167"/>
										</Node>
										<Node score="0.5704290577513903">
											<SimplePredicate field="double(pstd_hour)" operator="lessOrEqual" value="3.5"/>
										</Node>
									</Node>
								</Node>
							</TreeModel>
						</Segment>
						<Segment id="41">
							<True/>
							<TreeModel functionName="regression" missingValueStrategy="nullPrediction" noTrueChildStrategy="returnLastPrediction">
								<MiningSchema>
									<MiningField name="double(txn_amt_vs_acct_avg)"/>
									<MiningField name="double(txn_amt)"/>
									<MiningField name="double(TS_prev_time)"/>
									<MiningField name="double(pstd_hour)"/>
									<MiningField name="double(balancePostEvt)"/>
								</MiningSchema>
								<Node score="-0.039766339721208445">
									<True/>
									<Node score="-1.3112141085831333">
										<SimplePredicate field="double(txn_amt)" operator="lessOrEqual" value="4795.780029296875"/>
										<Node score="2.4040242362751">
											<SimplePredicate field="double(TS_prev_time)" operator="lessOrEqual" value="30800.0"/>
											<Node score="2.921528334433024">
												<SimplePredicate field="double(pstd_hour)" operator="lessOrEqual" value="4.5"/>
												<Node score="1.0346147761451228">
													<SimplePredicate field="double(txn_amt_vs_acct_avg)" operator="lessOrEqual" value="0.06675925850868225"/>
												</Node>
											</Node>
											<Node score="-1.2060498864556808">
												<SimplePredicate field="double(pstd_hour)" operator="lessOrEqual" value="21.5"/>
											</Node>
										</Node>
										<Node score="-0.3168839458256182">
											<SimplePredicate field="double(txn_amt)" operator="lessOrEqual" value="4726.199951171875"/>
											<Node score="0.5252003473252643">
												<SimplePredicate field="double(txn_amt_vs_acct_avg)" operator="lessOrEqual" value="0.0860709585249424"/>
											</Node>
										</Node>
										<Node score="32.209501493399394">
											<SimplePredicate field="double(pstd_hour)" operator="lessOrEqual" value="13.0"/>
										</Node>
									</Node>
									<Node score="-0.8381031305529345">
										<SimplePredicate field="double(txn_amt_vs_acct_avg)" operator="lessOrEqual" value="0.09111307188868523"/>
									</Node>
									<Node score="-1.0016214222445332">
										<SimplePredicate field="double(balancePostEvt)" operator="lessOrEqual" value="540.7350158691406"/>
										<Node score="-1.022066755122933">
											<SimplePredicate field="double(TS_prev_time)" operator="lessOrEqual" value="2375.0"/>
										</Node>
									</Node>
									<Node score="8.521995219612302">
										<SimplePredicate field="double(balancePostEvt)" operator="lessOrEqual" value="2170.68994140625"/>
									</Node>
								</Node>
							</TreeModel>
						</Segment>
						<Segment id="42">
							<True/>
							<TreeModel functionName="regression" missingValueStrategy="nullPrediction" noTrueChildStrategy="returnLastPrediction">
								<MiningSchema>
									<MiningField name="double(txn_amt_vs_acct_avg)"/>
									<MiningField name="double(txn_amt)"/>
									<MiningField name="double(TS_prev_time)"/>
									<MiningField name="double(pstd_hour)"/>
								</MiningSchema>
								<Node score="-0.5118243855800062">
									<True/>
									<Node score="-1.002654643250875">
										<SimplePredicate field="double(txn_amt_vs_acct_avg)" operator="lessOrEqual" value="0.06967474520206451"/>
										<Node score="0.3285695771563727">
											<SimplePredicate field="double(pstd_hour)" operator="lessOrEqual" value="3.5"/>
										</Node>
									</Node>
									<Node score="-0.8268421883480189">
										<SimplePredicate field="double(pstd_hour)" operator="lessOrEqual" value="4.5"/>
										<Node score="0.3205803207050231">
											<SimplePredicate field="double(TS_prev_time)" operator="lessOrEqual" value="30840.5"/>
											<Node score="3.0585472413828647">
												<SimplePredicate field="double(txn_amt)" operator="lessOrEqual" value="20350.775390625"/>
											</Node>
										</Node>
										<Node score="1.4902477699812944">
											<SimplePredicate field="double(txn_amt)" operator="lessOrEqual" value="4979.08740234375"/>
										</Node>
									</Node>
									<Node score="-0.6383533960248703">
										<SimplePredicate field="double(txn_amt_vs_acct_avg)" operator="lessOrEqual" value="0.09935906901955605"/>
									</Node>
									<Node score="-1.0485194435423437">
										<SimplePredicate field="double(TS_prev_time)" operator="lessOrEqual" value="152.5"/>
									</Node>
								</Node>
							</TreeModel>
						</Segment>
						<Segment id="43">
							<True/>
							<TreeModel functionName="regression" missingValueStrategy="nullPrediction" noTrueChildStrategy="returnLastPrediction">
								<MiningSchema>
									<MiningField name="double(txn_amt_vs_acct_avg)"/>
									<MiningField name="double(TS_cur_cntPeriod1)"/>
								</MiningSchema>
								<Node score="-0.11590757126408624">
									<True/>
									<Node score="0.521511765490205">
										<SimplePredicate field="double(txn_amt_vs_acct_avg)" operator="lessOrEqual" value="0.0745132565498352"/>
										<Node score="-1.1136219387703163">
											<SimplePredicate field="double(TS_cur_cntPeriod1)" operator="lessOrEqual" value="0.5"/>
										</Node>
									</Node>
									<Node score="0.37641830429054757">
										<SimplePredicate field="double(txn_amt_vs_acct_avg)" operator="lessOrEqual" value="0.09711470454931259"/>
									</Node>
									<Node score="-1.1333541327175831">
										<SimplePredicate field="double(txn_amt_vs_acct_avg)" operator="lessOrEqual" value="0.11440819501876831"/>
									</Node>
									<Node score="0.7121041447934333">
										<SimplePredicate field="double(txn_amt_vs_acct_avg)" operator="lessOrEqual" value="0.12130763754248619"/>
									</Node>
								</Node>
							</TreeModel>
						</Segment>
						<Segment id="44">
							<True/>
							<TreeModel functionName="regression" missingValueStrategy="nullPrediction" noTrueChildStrategy="returnLastPrediction">
								<MiningSchema>
									<MiningField name="double(txn_amt_vs_acct_avg)"/>
									<MiningField name="double(txn_amt)"/>
									<MiningField name="double(TS_prev_time)"/>
									<MiningField name="double(TO_cur_sumPeriod2)"/>
									<MiningField name="double(pstd_hour)"/>
									<MiningField name="double(TO_cur_cntPeriod2)"/>
									<MiningField name="double(balancePostEvt)"/>
								</MiningSchema>
								<Node score="-1.0010009960177297">
									<True/>
									<Node score="0.8161222218866073">
										<SimplePredicate field="double(TS_prev_time)" operator="lessOrEqual" value="30777.5"/>
										<Node score="3.711539996940834">
											<SimplePredicate field="double(txn_amt)" operator="lessOrEqual" value="4911.0048828125"/>
											<Node score="-1.039080019369481">
												<SimplePredicate field="double(TO_cur_sumPeriod2)" operator="lessOrEqual" value="33204.900390625"/>
												<Node score="1.2672058570819529">
													<SimplePredicate field="double(txn_amt_vs_acct_avg)" operator="lessOrEqual" value="0.49112938344478607"/>
												</Node>
											</Node>
											<Node score="1.0347297155837623">
												<SimplePredicate field="double(txn_amt_vs_acct_avg)" operator="lessOrEqual" value="0.07084198668599129"/>
											</Node>
										</Node>
										<Node score="6.502741936382291">
											<SimplePredicate field="double(pstd_hour)" operator="lessOrEqual" value="0.5"/>
											<Node score="0.4114687060382352">
												<SimplePredicate field="double(txn_amt_vs_acct_avg)" operator="lessOrEqual" value="1.3967044353485107"/>
											</Node>
										</Node>
										<Node score="-1.0099151331255232">
											<SimplePredicate field="double(balancePostEvt)" operator="lessOrEqual" value="177.44500732421875"/>
										</Node>
									</Node>
									<Node score="-1.0665376744330965">
										<SimplePredicate field="double(txn_amt_vs_acct_avg)" operator="lessOrEqual" value="0.1194639652967453"/>
										<Node score="0.29326175094658613">
											<SimplePredicate field="double(TO_cur_cntPeriod2)" operator="lessOrEqual" value="5.5"/>
										</Node>
										<Node score="-1.157801759422982">
											<SimplePredicate field="double(txn_amt_vs_acct_avg)" operator="lessOrEqual" value="0.10336050391197205"/>
										</Node>
									</Node>
									<Node score="18.090817198073072">
										<SimplePredicate field="double(TO_cur_sumPeriod2)" operator="lessOrEqual" value="38113.833984375"/>
										<Node score="0.06462417238086654">
											<SimplePredicate field="double(TO_cur_sumPeriod2)" operator="lessOrEqual" value="37306.416015625"/>
										</Node>
									</Node>
									<Node score="-1.002510432682607">
										<SimplePredicate field="double(pstd_hour)" operator="lessOrEqual" value="4.5"/>
									</Node>
								</Node>
							</TreeModel>
						</Segment>
						<Segment id="45">
							<True/>
							<TreeModel functionName="regression" missingValueStrategy="nullPrediction" noTrueChildStrategy="returnLastPrediction">
								<MiningSchema>
									<MiningField name="double(txn_amt_vs_acct_avg)"/>
									<MiningField name="double(TS_prev_time)"/>
									<MiningField name="double(TO_cur_sumPeriod2)"/>
									<MiningField name="double(TO_cur_cntPeriod4)"/>
								</MiningSchema>
								<Node score="2.1285855504920375">
									<True/>
									<Node score="-0.9519961318299699">
										<SimplePredicate field="double(txn_amt_vs_acct_avg)" operator="lessOrEqual" value="0.08576750755310059"/>
										<Node score="1.14237253207674">
											<SimplePredicate field="double(TO_cur_sumPeriod2)" operator="lessOrEqual" value="497577.234375"/>
										</Node>
										<Node score="0.4820992708224215">
											<SimplePredicate field="double(TS_prev_time)" operator="lessOrEqual" value="10721.0"/>
										</Node>
									</Node>
									<Node score="-0.8316791390533593">
										<SimplePredicate field="double(txn_amt_vs_acct_avg)" operator="lessOrEqual" value="0.10334546118974686"/>
									</Node>
									<Node score="-1.0101564710299773">
										<SimplePredicate field="double(TS_prev_time)" operator="lessOrEqual" value="168.5"/>
									</Node>
									<Node score="-0.23531091745770763">
										<SimplePredicate field="double(TO_cur_cntPeriod4)" operator="lessOrEqual" value="93.5"/>
									</Node>
								</Node>
							</TreeModel>
						</Segment>
						<Segment id="46">
							<True/>
							<TreeModel functionName="regression" missingValueStrategy="nullPrediction" noTrueChildStrategy="returnLastPrediction">
								<MiningSchema>
									<MiningField name="double(txn_amt_vs_acct_avg)"/>
									<MiningField name="double(txn_amt)"/>
									<MiningField name="double(TS_prev_time)"/>
									<MiningField name="double(TO_cur_sumPeriod2)"/>
									<MiningField name="double(pstd_hour)"/>
									<MiningField name="double(TS_cur_cntPeriod1)"/>
									<MiningField name="double(TO_cur_sumPeriod4)"/>
									<MiningField name="double(TO_min_Period1_interval)"/>
								</MiningSchema>
								<Node score="-1.0264417846334684">
									<True/>
									<Node score="-1.001729131286384">
										<SimplePredicate field="double(txn_amt_vs_acct_avg)" operator="lessOrEqual" value="0.1194639652967453"/>
										<Node score="-1.0411125318120273">
											<SimplePredicate field="double(TO_cur_sumPeriod4)" operator="lessOrEqual" value="928345.78125"/>
											<Node score="-0.43284864262736467">
												<SimplePredicate field="double(pstd_hour)" operator="lessOrEqual" value="10.5"/>
											</Node>
										</Node>
										<Node score="1.399651416166645">
											<SimplePredicate field="double(TO_cur_sumPeriod2)" operator="lessOrEqual" value="992678.59375"/>
										</Node>
										<Node score="-1.131310827626115">
											<SimplePredicate field="double(txn_amt_vs_acct_avg)" operator="lessOrEqual" value="0.0871628113090992"/>
										</Node>
									</Node>
									<Node score="-0.5575782969398261">
										<SimplePredicate field="double(txn_amt)" operator="lessOrEqual" value="4900.864990234375"/>
										<Node score="2.3144169435530597">
											<SimplePredicate field="double(TS_prev_time)" operator="lessOrEqual" value="4629.5"/>
										</Node>
										<Node score="3.890504400141593">
											<SimplePredicate field="double(pstd_hour)" operator="lessOrEqual" value="4.5"/>
										</Node>
									</Node>
									<Node score="-0.45600117630833237">
										<SimplePredicate field="double(TS_cur_cntPeriod1)" operator="lessOrEqual" value="2.5"/>
										<Node score="-1.0427601499379096">
											<SimplePredicate field="double(TS_prev_time)" operator="lessOrEqual" value="241.5"/>
										</Node>
									</Node>
									<Node score="3.014363929776815">
										<SimplePredicate field="double(TO_min_Period1_interval)" operator="lessOrEqual" value="160.0"/>
									</Node>
								</Node>
							</TreeModel>
						</Segment>
						<Segment id="47">
							<True/>
							<TreeModel functionName="regression" missingValueStrategy="nullPrediction" noTrueChildStrategy="returnLastPrediction">
								<MiningSchema>
									<MiningField name="double(txn_amt_vs_acct_avg)"/>
									<MiningField name="double(txn_amt)"/>
									<MiningField name="double(TS_prev_time)"/>
									<MiningField name="double(TS_cur_cntPeriod1)"/>
									<MiningField name="double(TO_cur_sumPeriod4)"/>
									<MiningField name="double(TO_min_Period1_interval)"/>
									<MiningField name="double(TO_prev_time)"/>
								</MiningSchema>
								<Node score="-1.0244834112636378">
									<True/>
									<Node score="1.3242770219839308">
										<SimplePredicate field="double(txn_amt)" operator="lessOrEqual" value="4795.755126953125"/>
										<Node score="4.877192078262351">
											<SimplePredicate field="double(TS_prev_time)" operator="lessOrEqual" value="4629.5"/>
											<Node score="0.21830434952234581">
												<SimplePredicate field="double(TS_prev_time)" operator="lessOrEqual" value="1728.0"/>
											</Node>
										</Node>
										<Node score="-0.02997701570665609">
											<SimplePredicate field="double(TO_cur_sumPeriod4)" operator="lessOrEqual" value="618260.9375"/>
											<Node score="17.0654810132277">
												<SimplePredicate field="double(TO_prev_time)" operator="lessOrEqual" value="165.0"/>
											</Node>
										</Node>
									</Node>
									<Node score="-1.0033032519353444">
										<SimplePredicate field="double(txn_amt_vs_acct_avg)" operator="lessOrEqual" value="0.09111307188868523"/>
									</Node>
									<Node score="-0.38025101602994216">
										<SimplePredicate field="double(TS_cur_cntPeriod1)" operator="lessOrEqual" value="2.5"/>
										<Node score="-1.0392965326011407">
											<SimplePredicate field="double(TS_prev_time)" operator="lessOrEqual" value="212.5"/>
										</Node>
									</Node>
									<Node score="2.677209503970502">
										<SimplePredicate field="double(TO_min_Period1_interval)" operator="lessOrEqual" value="139.0"/>
									</Node>
								</Node>
							</TreeModel>
						</Segment>
						<Segment id="48">
							<True/>
							<TreeModel functionName="regression" missingValueStrategy="nullPrediction" noTrueChildStrategy="returnLastPrediction">
								<MiningSchema>
									<MiningField name="double(txn_amt_vs_acct_avg)"/>
									<MiningField name="double(txn_amt)"/>
									<MiningField name="double(TS_prev_time)"/>
									<MiningField name="double(pstd_hour)"/>
									<MiningField name="double(TO_cur_sumPeriod3)"/>
								</MiningSchema>
								<Node score="3.0060508196757554">
									<True/>
									<Node score="-0.8190775695913453">
										<SimplePredicate field="double(pstd_hour)" operator="lessOrEqual" value="22.5"/>
										<Node score="-1.161641993924543">
											<SimplePredicate field="double(txn_amt_vs_acct_avg)" operator="lessOrEqual" value="0.11996791884303093"/>
											<Node score="0.1886773659422507">
												<SimplePredicate field="double(pstd_hour)" operator="lessOrEqual" value="6.5"/>
												<Node score="0.6201947608714397">
													<SimplePredicate field="double(TO_cur_sumPeriod3)" operator="lessOrEqual" value="204952.75"/>
												</Node>
											</Node>
											<Node score="-1.241035130013073">
												<SimplePredicate field="double(txn_amt)" operator="lessOrEqual" value="4767.380126953125"/>
											</Node>
										</Node>
										<Node score="0.6101157641840667">
											<SimplePredicate field="double(TS_prev_time)" operator="lessOrEqual" value="116.5"/>
										</Node>
										<Node score="0.33678751382740574">
											<SimplePredicate field="double(TO_cur_sumPeriod3)" operator="lessOrEqual" value="43011.365234375"/>
										</Node>
									</Node>
									<Node score="1.918682240036115">
										<SimplePredicate field="double(txn_amt_vs_acct_avg)" operator="lessOrEqual" value="0.17460673302412033"/>
									</Node>
									<Node score="8.327614047635477">
										<SimplePredicate field="double(txn_amt)" operator="lessOrEqual" value="1807.1649780273438"/>
									</Node>
									<Node score="-1.0167318397602403">
										<SimplePredicate field="double(txn_amt_vs_acct_avg)" operator="lessOrEqual" value="1.208492398262024"/>
									</Node>
								</Node>
							</TreeModel>
						</Segment>
						<Segment id="49">
							<True/>
							<TreeModel functionName="regression" missingValueStrategy="nullPrediction" noTrueChildStrategy="returnLastPrediction">
								<MiningSchema>
									<MiningField name="double(txn_amt_vs_acct_avg)"/>
									<MiningField name="double(txn_amt)"/>
									<MiningField name="double(TS_prev_time)"/>
									<MiningField name="double(balancePostEvt)"/>
									<MiningField name="double(TO_cur_sumPeriod4)"/>
								</MiningSchema>
								<Node score="-0.082089920131224">
									<True/>
									<Node score="-1.2231088691897163">
										<SimplePredicate field="double(txn_amt_vs_acct_avg)" operator="lessOrEqual" value="0.10273431241512299"/>
										<Node score="0.7248100243833735">
											<SimplePredicate field="double(txn_amt)" operator="lessOrEqual" value="6774.985107421875"/>
											<Node score="-0.419595896891329">
												<SimplePredicate field="double(TO_cur_sumPeriod4)" operator="lessOrEqual" value="929269.90625"/>
											</Node>
										</Node>
									</Node>
									<Node score="-1.0025591743935156">
										<SimplePredicate field="double(balancePostEvt)" operator="lessOrEqual" value="41.564998626708984"/>
										<Node score="0.09287862233934178">
											<SimplePredicate field="double(txn_amt)" operator="lessOrEqual" value="4902.804931640625"/>
											<Node score="1.8614651142280803">
												<SimplePredicate field="double(TS_prev_time)" operator="lessOrEqual" value="5819.0"/>
											</Node>
										</Node>
										<Node score="-1.0273349875774902">
											<SimplePredicate field="double(TS_prev_time)" operator="lessOrEqual" value="320.0"/>
										</Node>
									</Node>
									<Node score="2.567037942604827">
										<SimplePredicate field="double(balancePostEvt)" operator="lessOrEqual" value="2170.68994140625"/>
										<Node score="8.645521335844531">
											<SimplePredicate field="double(TS_prev_time)" operator="lessOrEqual" value="20925.0"/>
										</Node>
									</Node>
									<Node score="1.003085320345712">
										<SimplePredicate field="double(TS_prev_time)" operator="lessOrEqual" value="1437.5"/>
									</Node>
								</Node>
							</TreeModel>
						</Segment>
						<Segment id="50">
							<True/>
							<TreeModel functionName="regression" missingValueStrategy="nullPrediction" noTrueChildStrategy="returnLastPrediction">
								<MiningSchema>
									<MiningField name="double(txn_amt_vs_acct_avg)"/>
									<MiningField name="double(TS_prev_time)"/>
									<MiningField name="double(pstd_hour)"/>
									<MiningField name="double(TS_cur_cntPeriod1)"/>
									<MiningField name="double(TO_cur_sumPeriod4)"/>
									<MiningField name="double(TO_cur_sumPeriod1)"/>
								</MiningSchema>
								<Node score="-0.5213900185441">
									<True/>
									<Node score="-0.533994207463172">
										<SimplePredicate field="double(txn_amt_vs_acct_avg)" operator="lessOrEqual" value="0.10273431241512299"/>
										<Node score="-1.0749828864195403">
											<SimplePredicate field="double(TS_cur_cntPeriod1)" operator="lessOrEqual" value="0.5"/>
											<Node score="-0.8328446374200813">
												<SimplePredicate field="double(TO_cur_sumPeriod4)" operator="lessOrEqual" value="5420223.5"/>
											</Node>
										</Node>
										<Node score="0.7175289272573412">
											<SimplePredicate field="double(TO_cur_sumPeriod1)" operator="lessOrEqual" value="19721.72998046875"/>
										</Node>
									</Node>
									<Node score="-1.0275652862377225">
										<SimplePredicate field="double(txn_amt_vs_acct_avg)" operator="lessOrEqual" value="0.16637956351041794"/>
										<Node score="-1.0062331759411187">
											<SimplePredicate field="double(TS_prev_time)" operator="lessOrEqual" value="30849.5"/>
											<Node score="2.3671290725859846">
												<SimplePredicate field="double(TO_cur_sumPeriod1)" operator="lessOrEqual" value="38812.46484375"/>
											</Node>
										</Node>
										<Node score="-1.0680914142239046">
											<SimplePredicate field="double(TO_cur_sumPeriod1)" operator="lessOrEqual" value="3529.125"/>
										</Node>
									</Node>
									<Node score="0.3746806354869786">
										<SimplePredicate field="double(pstd_hour)" operator="lessOrEqual" value="4.5"/>
										<Node score="1.1798486196950295">
											<SimplePredicate field="double(TS_prev_time)" operator="lessOrEqual" value="425.0"/>
										</Node>
									</Node>
									<Node score="-1.0450824801702534">
										<SimplePredicate field="double(TS_prev_time)" operator="lessOrEqual" value="321.5"/>
									</Node>
								</Node>
							</TreeModel>
						</Segment>
						<Segment id="51">
							<True/>
							<TreeModel functionName="regression" missingValueStrategy="nullPrediction" noTrueChildStrategy="returnLastPrediction">
								<MiningSchema>
									<MiningField name="double(txn_amt_vs_acct_avg)"/>
									<MiningField name="double(txn_amt)"/>
									<MiningField name="double(TS_prev_time)"/>
									<MiningField name="double(TO_cur_sumPeriod2)"/>
									<MiningField name="double(pstd_hour)"/>
									<MiningField name="double(TO_cur_cntPeriod4)"/>
									<MiningField name="double(TS_cur_cntPeriod1)"/>
									<MiningField name="double(balancePostEvt)"/>
									<MiningField name="double(TO_cur_sumPeriod4)"/>
								</MiningSchema>
								<Node score="1.6536308018542156">
									<True/>
									<Node score="1.8695570805742097">
										<SimplePredicate field="double(pstd_hour)" operator="lessOrEqual" value="4.5"/>
										<Node score="-0.8020437455872632">
											<SimplePredicate field="double(TS_cur_cntPeriod1)" operator="lessOrEqual" value="0.5"/>
											<Node score="18.64489688609065">
												<SimplePredicate field="double(TO_cur_sumPeriod4)" operator="lessOrEqual" value="57866.2109375"/>
												<Node score="-0.40772621574596035">
													<SimplePredicate field="double(TO_cur_sumPeriod4)" operator="lessOrEqual" value="53950.599609375"/>
												</Node>
											</Node>
											<Node score="-1.1812663426822834">
												<SimplePredicate field="double(txn_amt)" operator="lessOrEqual" value="1988.02001953125"/>
											</Node>
										</Node>
										<Node score="2.964030196792608">
											<SimplePredicate field="double(txn_amt)" operator="lessOrEqual" value="4545.9599609375"/>
											<Node score="-1.012859142682943">
												<SimplePredicate field="double(TO_cur_sumPeriod2)" operator="lessOrEqual" value="14607.9599609375"/>
											</Node>
										</Node>
										<Node score="-0.6584071601416757">
											<SimplePredicate field="double(balancePostEvt)" operator="lessOrEqual" value="332.6850128173828"/>
										</Node>
									</Node>
									<Node score="-0.14441806282965905">
										<SimplePredicate field="double(txn_amt_vs_acct_avg)" operator="lessOrEqual" value="0.09807033091783524"/>
										<Node score="-1.303101406611872">
											<SimplePredicate field="double(pstd_hour)" operator="lessOrEqual" value="18.5"/>
										</Node>
									</Node>
									<Node score="-0.593868609475894">
										<SimplePredicate field="double(TO_cur_cntPeriod4)" operator="lessOrEqual" value="92.5"/>
